digraph Tree {
node [shape=box] ;
0 [label="X[0] <= 169.5\nentropy = 0.933\nsamples = 750000\nvalue = [487998, 262002]"] ;
1 [label="X[0] <= 166.5\nentropy = 0.011\nsamples = 127441\nvalue = [127317, 124]"] ;
0 -> 1 [labeldistance=2.5, labelangle=45, headlabel="True"] ;
2 [label="entropy = 0.0\nsamples = 125185\nvalue = [125185, 0]"] ;
1 -> 2 ;
3 [label="X[1] <= 460.5\nentropy = 0.307\nsamples = 2256\nvalue = [2132, 124]"] ;
1 -> 3 ;
4 [label="entropy = 0.0\nsamples = 1056\nvalue = [1056, 0]"] ;
3 -> 4 ;
5 [label="X[1] <= 540.0\nentropy = 0.479\nsamples = 1200\nvalue = [1076, 124]"] ;
3 -> 5 ;
6 [label="X[0] <= 168.5\nentropy = 0.907\nsamples = 183\nvalue = [59, 124]"] ;
5 -> 6 ;
7 [label="X[1] <= 470.5\nentropy = 0.998\nsamples = 124\nvalue = [59, 65]"] ;
6 -> 7 ;
8 [label="entropy = 0.0\nsamples = 18\nvalue = [18, 0]"] ;
7 -> 8 ;
9 [label="X[1] <= 529.5\nentropy = 0.963\nsamples = 106\nvalue = [41, 65]"] ;
7 -> 9 ;
10 [label="X[0] <= 167.5\nentropy = 0.829\nsamples = 88\nvalue = [23, 65]"] ;
9 -> 10 ;
11 [label="X[1] <= 514.5\nentropy = 0.999\nsamples = 44\nvalue = [23, 21]"] ;
10 -> 11 ;
12 [label="X[1] <= 485.5\nentropy = 0.907\nsamples = 31\nvalue = [10, 21]"] ;
11 -> 12 ;
13 [label="entropy = 0.0\nsamples = 10\nvalue = [10, 0]"] ;
12 -> 13 ;
14 [label="entropy = 0.0\nsamples = 21\nvalue = [0, 21]"] ;
12 -> 14 ;
15 [label="entropy = 0.0\nsamples = 13\nvalue = [13, 0]"] ;
11 -> 15 ;
16 [label="entropy = 0.0\nsamples = 44\nvalue = [0, 44]"] ;
10 -> 16 ;
17 [label="entropy = 0.0\nsamples = 18\nvalue = [18, 0]"] ;
9 -> 17 ;
18 [label="entropy = 0.0\nsamples = 59\nvalue = [0, 59]"] ;
6 -> 18 ;
19 [label="entropy = 0.0\nsamples = 1017\nvalue = [1017, 0]"] ;
5 -> 19 ;
20 [label="X[0] <= 827.5\nentropy = 0.982\nsamples = 622559\nvalue = [360681, 261878]"] ;
0 -> 20 [labeldistance=2.5, labelangle=-45, headlabel="False"] ;
21 [label="X[1] <= 172.5\nentropy = 0.997\nsamples = 493552\nvalue = [232034, 261518]"] ;
20 -> 21 ;
22 [label="X[1] <= 166.5\nentropy = 0.04\nsamples = 85152\nvalue = [84786, 366]"] ;
21 -> 22 ;
23 [label="entropy = 0.0\nsamples = 82179\nvalue = [82179, 0]"] ;
22 -> 23 ;
24 [label="X[0] <= 441.5\nentropy = 0.538\nsamples = 2973\nvalue = [2607, 366]"] ;
22 -> 24 ;
25 [label="entropy = 0.0\nsamples = 1227\nvalue = [1227, 0]"] ;
24 -> 25 ;
26 [label="X[0] <= 557.5\nentropy = 0.741\nsamples = 1746\nvalue = [1380, 366]"] ;
24 -> 26 ;
27 [label="X[1] <= 169.5\nentropy = 0.881\nsamples = 521\nvalue = [156, 365]"] ;
26 -> 27 ;
28 [label="X[0] <= 461.5\nentropy = 1.0\nsamples = 268\nvalue = [137, 131]"] ;
27 -> 28 ;
29 [label="entropy = 0.0\nsamples = 44\nvalue = [44, 0]"] ;
28 -> 29 ;
30 [label="X[0] <= 539.5\nentropy = 0.979\nsamples = 224\nvalue = [93, 131]"] ;
28 -> 30 ;
31 [label="X[1] <= 167.5\nentropy = 0.856\nsamples = 182\nvalue = [51, 131]"] ;
30 -> 31 ;
32 [label="X[0] <= 514.5\nentropy = 0.939\nsamples = 59\nvalue = [38, 21]"] ;
31 -> 32 ;
33 [label="X[0] <= 485.5\nentropy = 0.987\nsamples = 37\nvalue = [16, 21]"] ;
32 -> 33 ;
34 [label="entropy = 0.0\nsamples = 16\nvalue = [16, 0]"] ;
33 -> 34 ;
35 [label="entropy = 0.0\nsamples = 21\nvalue = [0, 21]"] ;
33 -> 35 ;
36 [label="entropy = 0.0\nsamples = 22\nvalue = [22, 0]"] ;
32 -> 36 ;
37 [label="X[1] <= 168.5\nentropy = 0.487\nsamples = 123\nvalue = [13, 110]"] ;
31 -> 37 ;
38 [label="X[0] <= 529.5\nentropy = 0.728\nsamples = 64\nvalue = [13, 51]"] ;
37 -> 38 ;
39 [label="X[0] <= 470.5\nentropy = 0.485\nsamples = 57\nvalue = [6, 51]"] ;
38 -> 39 ;
40 [label="entropy = 0.0\nsamples = 6\nvalue = [6, 0]"] ;
39 -> 40 ;
41 [label="entropy = 0.0\nsamples = 51\nvalue = [0, 51]"] ;
39 -> 41 ;
42 [label="entropy = 0.0\nsamples = 7\nvalue = [7, 0]"] ;
38 -> 42 ;
43 [label="entropy = 0.0\nsamples = 59\nvalue = [0, 59]"] ;
37 -> 43 ;
44 [label="entropy = 0.0\nsamples = 42\nvalue = [42, 0]"] ;
30 -> 44 ;
45 [label="X[0] <= 447.5\nentropy = 0.385\nsamples = 253\nvalue = [19, 234]"] ;
27 -> 45 ;
46 [label="X[1] <= 171.5\nentropy = 0.989\nsamples = 16\nvalue = [9, 7]"] ;
45 -> 46 ;
47 [label="X[0] <= 446.5\nentropy = 0.469\nsamples = 10\nvalue = [9, 1]"] ;
46 -> 47 ;
48 [label="entropy = 0.0\nsamples = 8\nvalue = [8, 0]"] ;
47 -> 48 ;
49 [label="X[1] <= 170.5\nentropy = 1.0\nsamples = 2\nvalue = [1, 1]"] ;
47 -> 49 ;
50 [label="entropy = 0.0\nsamples = 1\nvalue = [1, 0]"] ;
49 -> 50 ;
51 [label="entropy = 0.0\nsamples = 1\nvalue = [0, 1]"] ;
49 -> 51 ;
52 [label="entropy = 0.0\nsamples = 6\nvalue = [0, 6]"] ;
46 -> 52 ;
53 [label="X[0] <= 547.5\nentropy = 0.252\nsamples = 237\nvalue = [10, 227]"] ;
45 -> 53 ;
54 [label="X[0] <= 450.5\nentropy = 0.042\nsamples = 220\nvalue = [1, 219]"] ;
53 -> 54 ;
55 [label="X[1] <= 170.5\nentropy = 0.65\nsamples = 6\nvalue = [1, 5]"] ;
54 -> 55 ;
56 [label="entropy = 0.0\nsamples = 1\nvalue = [1, 0]"] ;
55 -> 56 ;
57 [label="entropy = 0.0\nsamples = 5\nvalue = [0, 5]"] ;
55 -> 57 ;
58 [label="entropy = 0.0\nsamples = 214\nvalue = [0, 214]"] ;
54 -> 58 ;
59 [label="X[1] <= 171.5\nentropy = 0.998\nsamples = 17\nvalue = [9, 8]"] ;
53 -> 59 ;
60 [label="X[0] <= 552.5\nentropy = 0.811\nsamples = 12\nvalue = [9, 3]"] ;
59 -> 60 ;
61 [label="X[1] <= 170.5\nentropy = 1.0\nsamples = 6\nvalue = [3, 3]"] ;
60 -> 61 ;
62 [label="entropy = 0.0\nsamples = 3\nvalue = [3, 0]"] ;
61 -> 62 ;
63 [label="entropy = 0.0\nsamples = 3\nvalue = [0, 3]"] ;
61 -> 63 ;
64 [label="entropy = 0.0\nsamples = 6\nvalue = [6, 0]"] ;
60 -> 64 ;
65 [label="entropy = 0.0\nsamples = 5\nvalue = [0, 5]"] ;
59 -> 65 ;
66 [label="X[0] <= 559.5\nentropy = 0.01\nsamples = 1225\nvalue = [1224, 1]"] ;
26 -> 66 ;
67 [label="X[1] <= 171.5\nentropy = 0.469\nsamples = 10\nvalue = [9, 1]"] ;
66 -> 67 ;
68 [label="entropy = 0.0\nsamples = 9\nvalue = [9, 0]"] ;
67 -> 68 ;
69 [label="entropy = 0.0\nsamples = 1\nvalue = [0, 1]"] ;
67 -> 69 ;
70 [label="entropy = 0.0\nsamples = 1215\nvalue = [1215, 0]"] ;
66 -> 70 ;
71 [label="X[1] <= 820.5\nentropy = 0.943\nsamples = 408400\nvalue = [147248, 261152]"] ;
21 -> 71 ;
72 [label="X[0] <= 255.5\nentropy = 0.697\nsamples = 320067\nvalue = [60096, 259971]"] ;
71 -> 72 ;
73 [label="X[1] <= 299.5\nentropy = 1.0\nsamples = 41681\nvalue = [21249, 20432]"] ;
72 -> 73 ;
74 [label="X[1] <= 275.5\nentropy = 0.171\nsamples = 8201\nvalue = [7992, 209]"] ;
73 -> 74 ;
75 [label="X[0] <= 254.5\nentropy = 0.004\nsamples = 6620\nvalue = [6618, 2]"] ;
74 -> 75 ;
76 [label="entropy = 0.0\nsamples = 6542\nvalue = [6542, 0]"] ;
75 -> 76 ;
77 [label="X[1] <= 273.5\nentropy = 0.172\nsamples = 78\nvalue = [76, 2]"] ;
75 -> 77 ;
78 [label="entropy = 0.0\nsamples = 76\nvalue = [76, 0]"] ;
77 -> 78 ;
79 [label="entropy = 0.0\nsamples = 2\nvalue = [0, 2]"] ;
77 -> 79 ;
80 [label="X[0] <= 238.5\nentropy = 0.56\nsamples = 1581\nvalue = [1374, 207]"] ;
74 -> 80 ;
81 [label="X[0] <= 234.5\nentropy = 0.065\nsamples = 1292\nvalue = [1282, 10]"] ;
80 -> 81 ;
82 [label="entropy = 0.0\nsamples = 1227\nvalue = [1227, 0]"] ;
81 -> 82 ;
83 [label="X[1] <= 294.5\nentropy = 0.619\nsamples = 65\nvalue = [55, 10]"] ;
81 -> 83 ;
84 [label="entropy = 0.0\nsamples = 51\nvalue = [51, 0]"] ;
83 -> 84 ;
85 [label="X[0] <= 236.5\nentropy = 0.863\nsamples = 14\nvalue = [4, 10]"] ;
83 -> 85 ;
86 [label="X[1] <= 297.5\nentropy = 0.991\nsamples = 9\nvalue = [4, 5]"] ;
85 -> 86 ;
87 [label="X[0] <= 235.5\nentropy = 0.722\nsamples = 5\nvalue = [4, 1]"] ;
86 -> 87 ;
88 [label="entropy = 0.0\nsamples = 3\nvalue = [3, 0]"] ;
87 -> 88 ;
89 [label="X[1] <= 296.0\nentropy = 1.0\nsamples = 2\nvalue = [1, 1]"] ;
87 -> 89 ;
90 [label="entropy = 0.0\nsamples = 1\nvalue = [1, 0]"] ;
89 -> 90 ;
91 [label="entropy = 0.0\nsamples = 1\nvalue = [0, 1]"] ;
89 -> 91 ;
92 [label="entropy = 0.0\nsamples = 4\nvalue = [0, 4]"] ;
86 -> 92 ;
93 [label="entropy = 0.0\nsamples = 5\nvalue = [0, 5]"] ;
85 -> 93 ;
94 [label="X[1] <= 287.5\nentropy = 0.903\nsamples = 289\nvalue = [92, 197]"] ;
80 -> 94 ;
95 [label="X[0] <= 246.5\nentropy = 0.992\nsamples = 148\nvalue = [82, 66]"] ;
94 -> 95 ;
96 [label="X[1] <= 285.5\nentropy = 0.375\nsamples = 69\nvalue = [64, 5]"] ;
95 -> 96 ;
97 [label="entropy = 0.0\nsamples = 54\nvalue = [54, 0]"] ;
96 -> 97 ;
98 [label="X[0] <= 243.5\nentropy = 0.918\nsamples = 15\nvalue = [10, 5]"] ;
96 -> 98 ;
99 [label="entropy = 0.0\nsamples = 9\nvalue = [9, 0]"] ;
98 -> 99 ;
100 [label="X[0] <= 244.5\nentropy = 0.65\nsamples = 6\nvalue = [1, 5]"] ;
98 -> 100 ;
101 [label="X[1] <= 286.5\nentropy = 1.0\nsamples = 2\nvalue = [1, 1]"] ;
100 -> 101 ;
102 [label="entropy = 0.0\nsamples = 1\nvalue = [1, 0]"] ;
101 -> 102 ;
103 [label="entropy = 0.0\nsamples = 1\nvalue = [0, 1]"] ;
101 -> 103 ;
104 [label="entropy = 0.0\nsamples = 4\nvalue = [0, 4]"] ;
100 -> 104 ;
105 [label="X[1] <= 282.5\nentropy = 0.774\nsamples = 79\nvalue = [18, 61]"] ;
95 -> 105 ;
106 [label="X[0] <= 251.5\nentropy = 0.966\nsamples = 46\nvalue = [18, 28]"] ;
105 -> 106 ;
107 [label="X[1] <= 279.5\nentropy = 0.871\nsamples = 24\nvalue = [17, 7]"] ;
106 -> 107 ;
108 [label="entropy = 0.0\nsamples = 12\nvalue = [12, 0]"] ;
107 -> 108 ;
109 [label="X[0] <= 249.5\nentropy = 0.98\nsamples = 12\nvalue = [5, 7]"] ;
107 -> 109 ;
110 [label="X[0] <= 247.5\nentropy = 0.954\nsamples = 8\nvalue = [5, 3]"] ;
109 -> 110 ;
111 [label="entropy = 0.0\nsamples = 2\nvalue = [2, 0]"] ;
110 -> 111 ;
112 [label="X[1] <= 280.5\nentropy = 1.0\nsamples = 6\nvalue = [3, 3]"] ;
110 -> 112 ;
113 [label="entropy = 0.0\nsamples = 2\nvalue = [2, 0]"] ;
112 -> 113 ;
114 [label="X[0] <= 248.5\nentropy = 0.811\nsamples = 4\nvalue = [1, 3]"] ;
112 -> 114 ;
115 [label="X[1] <= 281.5\nentropy = 1.0\nsamples = 2\nvalue = [1, 1]"] ;
114 -> 115 ;
116 [label="entropy = 0.0\nsamples = 1\nvalue = [1, 0]"] ;
115 -> 116 ;
117 [label="entropy = 0.0\nsamples = 1\nvalue = [0, 1]"] ;
115 -> 117 ;
118 [label="entropy = 0.0\nsamples = 2\nvalue = [0, 2]"] ;
114 -> 118 ;
119 [label="entropy = 0.0\nsamples = 4\nvalue = [0, 4]"] ;
109 -> 119 ;
120 [label="X[1] <= 276.5\nentropy = 0.267\nsamples = 22\nvalue = [1, 21]"] ;
106 -> 120 ;
121 [label="X[0] <= 253.5\nentropy = 0.918\nsamples = 3\nvalue = [1, 2]"] ;
120 -> 121 ;
122 [label="entropy = 0.0\nsamples = 1\nvalue = [1, 0]"] ;
121 -> 122 ;
123 [label="entropy = 0.0\nsamples = 2\nvalue = [0, 2]"] ;
121 -> 123 ;
124 [label="entropy = 0.0\nsamples = 19\nvalue = [0, 19]"] ;
120 -> 124 ;
125 [label="entropy = 0.0\nsamples = 33\nvalue = [0, 33]"] ;
105 -> 125 ;
126 [label="X[0] <= 242.5\nentropy = 0.369\nsamples = 141\nvalue = [10, 131]"] ;
94 -> 126 ;
127 [label="X[1] <= 291.5\nentropy = 0.863\nsamples = 35\nvalue = [10, 25]"] ;
126 -> 127 ;
128 [label="X[0] <= 240.5\nentropy = 0.779\nsamples = 13\nvalue = [10, 3]"] ;
127 -> 128 ;
129 [label="entropy = 0.0\nsamples = 6\nvalue = [6, 0]"] ;
128 -> 129 ;
130 [label="X[1] <= 290.5\nentropy = 0.985\nsamples = 7\nvalue = [4, 3]"] ;
128 -> 130 ;
131 [label="X[0] <= 241.5\nentropy = 0.722\nsamples = 5\nvalue = [4, 1]"] ;
130 -> 131 ;
132 [label="entropy = 0.0\nsamples = 3\nvalue = [3, 0]"] ;
131 -> 132 ;
133 [label="X[1] <= 288.5\nentropy = 1.0\nsamples = 2\nvalue = [1, 1]"] ;
131 -> 133 ;
134 [label="entropy = 0.0\nsamples = 1\nvalue = [1, 0]"] ;
133 -> 134 ;
135 [label="entropy = 0.0\nsamples = 1\nvalue = [0, 1]"] ;
133 -> 135 ;
136 [label="entropy = 0.0\nsamples = 2\nvalue = [0, 2]"] ;
130 -> 136 ;
137 [label="entropy = 0.0\nsamples = 22\nvalue = [0, 22]"] ;
127 -> 137 ;
138 [label="entropy = 0.0\nsamples = 106\nvalue = [0, 106]"] ;
126 -> 138 ;
139 [label="X[1] <= 685.5\nentropy = 0.969\nsamples = 33480\nvalue = [13257, 20223]"] ;
73 -> 139 ;
140 [label="X[0] <= 205.5\nentropy = 0.727\nsamples = 24714\nvalue = [5008, 19706]"] ;
139 -> 140 ;
141 [label="X[1] <= 364.5\nentropy = 0.983\nsamples = 10402\nvalue = [4394, 6008]"] ;
140 -> 141 ;
142 [label="X[0] <= 196.5\nentropy = 0.261\nsamples = 1766\nvalue = [1688, 78]"] ;
141 -> 142 ;
143 [label="X[1] <= 363.5\nentropy = 0.009\nsamples = 1318\nvalue = [1317, 1]"] ;
142 -> 143 ;
144 [label="entropy = 0.0\nsamples = 1297\nvalue = [1297, 0]"] ;
143 -> 144 ;
145 [label="X[0] <= 195.0\nentropy = 0.276\nsamples = 21\nvalue = [20, 1]"] ;
143 -> 145 ;
146 [label="entropy = 0.0\nsamples = 20\nvalue = [20, 0]"] ;
145 -> 146 ;
147 [label="entropy = 0.0\nsamples = 1\nvalue = [0, 1]"] ;
145 -> 147 ;
148 [label="X[1] <= 348.5\nentropy = 0.662\nsamples = 448\nvalue = [371, 77]"] ;
142 -> 148 ;
149 [label="X[1] <= 344.5\nentropy = 0.092\nsamples = 342\nvalue = [338, 4]"] ;
148 -> 149 ;
150 [label="entropy = 0.0\nsamples = 317\nvalue = [317, 0]"] ;
149 -> 150 ;
151 [label="X[0] <= 203.5\nentropy = 0.634\nsamples = 25\nvalue = [21, 4]"] ;
149 -> 151 ;
152 [label="entropy = 0.0\nsamples = 19\nvalue = [19, 0]"] ;
151 -> 152 ;
153 [label="X[0] <= 204.5\nentropy = 0.918\nsamples = 6\nvalue = [2, 4]"] ;
151 -> 153 ;
154 [label="X[1] <= 346.5\nentropy = 1.0\nsamples = 4\nvalue = [2, 2]"] ;
153 -> 154 ;
155 [label="entropy = 0.0\nsamples = 2\nvalue = [2, 0]"] ;
154 -> 155 ;
156 [label="entropy = 0.0\nsamples = 2\nvalue = [0, 2]"] ;
154 -> 156 ;
157 [label="entropy = 0.0\nsamples = 2\nvalue = [0, 2]"] ;
153 -> 157 ;
158 [label="X[0] <= 202.5\nentropy = 0.895\nsamples = 106\nvalue = [33, 73]"] ;
148 -> 158 ;
159 [label="X[1] <= 357.5\nentropy = 0.993\nsamples = 73\nvalue = [33, 40]"] ;
158 -> 159 ;
160 [label="X[0] <= 199.5\nentropy = 0.839\nsamples = 41\nvalue = [30, 11]"] ;
159 -> 160 ;
161 [label="entropy = 0.0\nsamples = 19\nvalue = [19, 0]"] ;
160 -> 161 ;
162 [label="X[1] <= 352.5\nentropy = 1.0\nsamples = 22\nvalue = [11, 11]"] ;
160 -> 162 ;
163 [label="X[0] <= 201.5\nentropy = 0.469\nsamples = 10\nvalue = [9, 1]"] ;
162 -> 163 ;
164 [label="entropy = 0.0\nsamples = 7\nvalue = [7, 0]"] ;
163 -> 164 ;
165 [label="X[1] <= 351.0\nentropy = 0.918\nsamples = 3\nvalue = [2, 1]"] ;
163 -> 165 ;
166 [label="entropy = 0.0\nsamples = 2\nvalue = [2, 0]"] ;
165 -> 166 ;
167 [label="entropy = 0.0\nsamples = 1\nvalue = [0, 1]"] ;
165 -> 167 ;
168 [label="X[0] <= 200.5\nentropy = 0.65\nsamples = 12\nvalue = [2, 10]"] ;
162 -> 168 ;
169 [label="X[1] <= 354.5\nentropy = 0.971\nsamples = 5\nvalue = [2, 3]"] ;
168 -> 169 ;
170 [label="entropy = 0.0\nsamples = 2\nvalue = [2, 0]"] ;
169 -> 170 ;
171 [label="entropy = 0.0\nsamples = 3\nvalue = [0, 3]"] ;
169 -> 171 ;
172 [label="entropy = 0.0\nsamples = 7\nvalue = [0, 7]"] ;
168 -> 172 ;
173 [label="X[0] <= 197.5\nentropy = 0.449\nsamples = 32\nvalue = [3, 29]"] ;
159 -> 173 ;
174 [label="X[1] <= 361.5\nentropy = 0.971\nsamples = 5\nvalue = [3, 2]"] ;
173 -> 174 ;
175 [label="entropy = 0.0\nsamples = 3\nvalue = [3, 0]"] ;
174 -> 175 ;
176 [label="entropy = 0.0\nsamples = 2\nvalue = [0, 2]"] ;
174 -> 176 ;
177 [label="entropy = 0.0\nsamples = 27\nvalue = [0, 27]"] ;
173 -> 177 ;
178 [label="entropy = 0.0\nsamples = 33\nvalue = [0, 33]"] ;
158 -> 178 ;
179 [label="X[1] <= 612.5\nentropy = 0.897\nsamples = 8636\nvalue = [2706, 5930]"] ;
141 -> 179 ;
180 [label="X[0] <= 182.5\nentropy = 0.643\nsamples = 6691\nvalue = [1096, 5595]"] ;
179 -> 180 ;
181 [label="X[1] <= 413.5\nentropy = 0.96\nsamples = 2426\nvalue = [928, 1498]"] ;
180 -> 181 ;
182 [label="X[1] <= 400.5\nentropy = 0.285\nsamples = 484\nvalue = [460, 24]"] ;
181 -> 182 ;
183 [label="entropy = 0.0\nsamples = 355\nvalue = [355, 0]"] ;
182 -> 183 ;
184 [label="X[0] <= 179.5\nentropy = 0.693\nsamples = 129\nvalue = [105, 24]"] ;
182 -> 184 ;
185 [label="X[0] <= 178.5\nentropy = 0.08\nsamples = 101\nvalue = [100, 1]"] ;
184 -> 185 ;
186 [label="entropy = 0.0\nsamples = 92\nvalue = [92, 0]"] ;
185 -> 186 ;
187 [label="X[1] <= 410.5\nentropy = 0.503\nsamples = 9\nvalue = [8, 1]"] ;
185 -> 187 ;
188 [label="entropy = 0.0\nsamples = 8\nvalue = [8, 0]"] ;
187 -> 188 ;
189 [label="entropy = 0.0\nsamples = 1\nvalue = [0, 1]"] ;
187 -> 189 ;
190 [label="X[1] <= 406.5\nentropy = 0.677\nsamples = 28\nvalue = [5, 23]"] ;
184 -> 190 ;
191 [label="X[0] <= 181.5\nentropy = 0.994\nsamples = 11\nvalue = [5, 6]"] ;
190 -> 191 ;
192 [label="X[1] <= 404.0\nentropy = 0.863\nsamples = 7\nvalue = [5, 2]"] ;
191 -> 192 ;
193 [label="entropy = 0.0\nsamples = 4\nvalue = [4, 0]"] ;
192 -> 193 ;
194 [label="X[0] <= 180.5\nentropy = 0.918\nsamples = 3\nvalue = [1, 2]"] ;
192 -> 194 ;
195 [label="entropy = 0.0\nsamples = 1\nvalue = [1, 0]"] ;
194 -> 195 ;
196 [label="entropy = 0.0\nsamples = 2\nvalue = [0, 2]"] ;
194 -> 196 ;
197 [label="entropy = 0.0\nsamples = 4\nvalue = [0, 4]"] ;
191 -> 197 ;
198 [label="entropy = 0.0\nsamples = 17\nvalue = [0, 17]"] ;
190 -> 198 ;
199 [label="X[1] <= 569.5\nentropy = 0.797\nsamples = 1942\nvalue = [468, 1474]"] ;
181 -> 199 ;
200 [label="X[1] <= 443.5\nentropy = 0.481\nsamples = 1523\nvalue = [158, 1365]"] ;
199 -> 200 ;
201 [label="X[0] <= 174.5\nentropy = 0.962\nsamples = 298\nvalue = [115, 183]"] ;
200 -> 201 ;
202 [label="X[1] <= 433.5\nentropy = 0.604\nsamples = 115\nvalue = [98, 17]"] ;
201 -> 202 ;
203 [label="entropy = 0.0\nsamples = 73\nvalue = [73, 0]"] ;
202 -> 203 ;
204 [label="X[0] <= 171.5\nentropy = 0.974\nsamples = 42\nvalue = [25, 17]"] ;
202 -> 204 ;
205 [label="entropy = 0.0\nsamples = 19\nvalue = [19, 0]"] ;
204 -> 205 ;
206 [label="X[1] <= 439.5\nentropy = 0.828\nsamples = 23\nvalue = [6, 17]"] ;
204 -> 206 ;
207 [label="X[0] <= 172.5\nentropy = 0.985\nsamples = 14\nvalue = [6, 8]"] ;
206 -> 207 ;
208 [label="entropy = 0.0\nsamples = 4\nvalue = [4, 0]"] ;
207 -> 208 ;
209 [label="X[1] <= 435.5\nentropy = 0.722\nsamples = 10\nvalue = [2, 8]"] ;
207 -> 209 ;
210 [label="X[0] <= 173.5\nentropy = 1.0\nsamples = 4\nvalue = [2, 2]"] ;
209 -> 210 ;
211 [label="entropy = 0.0\nsamples = 2\nvalue = [2, 0]"] ;
210 -> 211 ;
212 [label="entropy = 0.0\nsamples = 2\nvalue = [0, 2]"] ;
210 -> 212 ;
213 [label="entropy = 0.0\nsamples = 6\nvalue = [0, 6]"] ;
209 -> 213 ;
214 [label="entropy = 0.0\nsamples = 9\nvalue = [0, 9]"] ;
206 -> 214 ;
215 [label="X[0] <= 177.5\nentropy = 0.446\nsamples = 183\nvalue = [17, 166]"] ;
201 -> 215 ;
216 [label="X[1] <= 425.5\nentropy = 0.8\nsamples = 70\nvalue = [17, 53]"] ;
215 -> 216 ;
217 [label="X[1] <= 417.5\nentropy = 0.931\nsamples = 26\nvalue = [17, 9]"] ;
216 -> 217 ;
218 [label="entropy = 0.0\nsamples = 9\nvalue = [9, 0]"] ;
217 -> 218 ;
219 [label="X[0] <= 175.5\nentropy = 0.998\nsamples = 17\nvalue = [8, 9]"] ;
217 -> 219 ;
220 [label="entropy = 0.0\nsamples = 6\nvalue = [6, 0]"] ;
219 -> 220 ;
221 [label="X[1] <= 421.5\nentropy = 0.684\nsamples = 11\nvalue = [2, 9]"] ;
219 -> 221 ;
222 [label="X[0] <= 176.5\nentropy = 0.971\nsamples = 5\nvalue = [2, 3]"] ;
221 -> 222 ;
223 [label="entropy = 0.0\nsamples = 2\nvalue = [2, 0]"] ;
222 -> 223 ;
224 [label="entropy = 0.0\nsamples = 3\nvalue = [0, 3]"] ;
222 -> 224 ;
225 [label="entropy = 0.0\nsamples = 6\nvalue = [0, 6]"] ;
221 -> 225 ;
226 [label="entropy = 0.0\nsamples = 44\nvalue = [0, 44]"] ;
216 -> 226 ;
227 [label="entropy = 0.0\nsamples = 113\nvalue = [0, 113]"] ;
215 -> 227 ;
228 [label="X[0] <= 173.5\nentropy = 0.219\nsamples = 1225\nvalue = [43, 1182]"] ;
200 -> 228 ;
229 [label="X[1] <= 549.5\nentropy = 0.53\nsamples = 358\nvalue = [43, 315]"] ;
228 -> 229 ;
230 [label="X[1] <= 452.5\nentropy = 0.207\nsamples = 308\nvalue = [10, 298]"] ;
229 -> 230 ;
231 [label="X[0] <= 170.5\nentropy = 0.931\nsamples = 26\nvalue = [9, 17]"] ;
230 -> 231 ;
232 [label="entropy = 0.0\nsamples = 7\nvalue = [7, 0]"] ;
231 -> 232 ;
233 [label="X[1] <= 446.5\nentropy = 0.485\nsamples = 19\nvalue = [2, 17]"] ;
231 -> 233 ;
234 [label="X[0] <= 171.5\nentropy = 0.918\nsamples = 6\nvalue = [2, 4]"] ;
233 -> 234 ;
235 [label="entropy = 0.0\nsamples = 2\nvalue = [2, 0]"] ;
234 -> 235 ;
236 [label="entropy = 0.0\nsamples = 4\nvalue = [0, 4]"] ;
234 -> 236 ;
237 [label="entropy = 0.0\nsamples = 13\nvalue = [0, 13]"] ;
233 -> 237 ;
238 [label="X[1] <= 547.5\nentropy = 0.034\nsamples = 282\nvalue = [1, 281]"] ;
230 -> 238 ;
239 [label="entropy = 0.0\nsamples = 275\nvalue = [0, 275]"] ;
238 -> 239 ;
240 [label="X[0] <= 170.5\nentropy = 0.592\nsamples = 7\nvalue = [1, 6]"] ;
238 -> 240 ;
241 [label="entropy = 0.0\nsamples = 1\nvalue = [1, 0]"] ;
240 -> 241 ;
242 [label="entropy = 0.0\nsamples = 6\nvalue = [0, 6]"] ;
240 -> 242 ;
243 [label="X[0] <= 170.5\nentropy = 0.925\nsamples = 50\nvalue = [33, 17]"] ;
229 -> 243 ;
244 [label="entropy = 0.0\nsamples = 14\nvalue = [14, 0]"] ;
243 -> 244 ;
245 [label="X[1] <= 555.5\nentropy = 0.998\nsamples = 36\nvalue = [19, 17]"] ;
243 -> 245 ;
246 [label="entropy = 0.0\nsamples = 10\nvalue = [0, 10]"] ;
245 -> 246 ;
247 [label="X[0] <= 172.5\nentropy = 0.84\nsamples = 26\nvalue = [19, 7]"] ;
245 -> 247 ;
248 [label="X[1] <= 556.5\nentropy = 0.323\nsamples = 17\nvalue = [16, 1]"] ;
247 -> 248 ;
249 [label="X[0] <= 171.5\nentropy = 1.0\nsamples = 2\nvalue = [1, 1]"] ;
248 -> 249 ;
250 [label="entropy = 0.0\nsamples = 1\nvalue = [1, 0]"] ;
249 -> 250 ;
251 [label="entropy = 0.0\nsamples = 1\nvalue = [0, 1]"] ;
249 -> 251 ;
252 [label="entropy = 0.0\nsamples = 15\nvalue = [15, 0]"] ;
248 -> 252 ;
253 [label="X[1] <= 565.0\nentropy = 0.918\nsamples = 9\nvalue = [3, 6]"] ;
247 -> 253 ;
254 [label="entropy = 0.0\nsamples = 6\nvalue = [0, 6]"] ;
253 -> 254 ;
255 [label="entropy = 0.0\nsamples = 3\nvalue = [3, 0]"] ;
253 -> 255 ;
256 [label="entropy = 0.0\nsamples = 867\nvalue = [0, 867]"] ;
228 -> 256 ;
257 [label="X[0] <= 174.5\nentropy = 0.827\nsamples = 419\nvalue = [310, 109]"] ;
199 -> 257 ;
258 [label="entropy = 0.0\nsamples = 166\nvalue = [166, 0]"] ;
257 -> 258 ;
259 [label="X[1] <= 596.5\nentropy = 0.986\nsamples = 253\nvalue = [144, 109]"] ;
257 -> 259 ;
260 [label="X[0] <= 179.5\nentropy = 0.912\nsamples = 159\nvalue = [52, 107]"] ;
259 -> 260 ;
261 [label="X[1] <= 580.5\nentropy = 0.999\nsamples = 97\nvalue = [50, 47]"] ;
260 -> 261 ;
262 [label="X[0] <= 176.5\nentropy = 0.485\nsamples = 38\nvalue = [4, 34]"] ;
261 -> 262 ;
263 [label="X[1] <= 575.5\nentropy = 0.837\nsamples = 15\nvalue = [4, 11]"] ;
262 -> 263 ;
264 [label="entropy = 0.0\nsamples = 9\nvalue = [0, 9]"] ;
263 -> 264 ;
265 [label="X[0] <= 175.5\nentropy = 0.918\nsamples = 6\nvalue = [4, 2]"] ;
263 -> 265 ;
266 [label="entropy = 0.0\nsamples = 3\nvalue = [3, 0]"] ;
265 -> 266 ;
267 [label="X[1] <= 578.0\nentropy = 0.918\nsamples = 3\nvalue = [1, 2]"] ;
265 -> 267 ;
268 [label="entropy = 0.0\nsamples = 2\nvalue = [0, 2]"] ;
267 -> 268 ;
269 [label="entropy = 0.0\nsamples = 1\nvalue = [1, 0]"] ;
267 -> 269 ;
270 [label="entropy = 0.0\nsamples = 23\nvalue = [0, 23]"] ;
262 -> 270 ;
271 [label="X[1] <= 589.5\nentropy = 0.761\nsamples = 59\nvalue = [46, 13]"] ;
261 -> 271 ;
272 [label="X[0] <= 178.5\nentropy = 0.952\nsamples = 35\nvalue = [22, 13]"] ;
271 -> 272 ;
273 [label="X[0] <= 176.5\nentropy = 0.619\nsamples = 26\nvalue = [22, 4]"] ;
272 -> 273 ;
274 [label="entropy = 0.0\nsamples = 13\nvalue = [13, 0]"] ;
273 -> 274 ;
275 [label="X[1] <= 582.5\nentropy = 0.89\nsamples = 13\nvalue = [9, 4]"] ;
273 -> 275 ;
276 [label="entropy = 0.0\nsamples = 2\nvalue = [0, 2]"] ;
275 -> 276 ;
277 [label="X[0] <= 177.5\nentropy = 0.684\nsamples = 11\nvalue = [9, 2]"] ;
275 -> 277 ;
278 [label="entropy = 0.0\nsamples = 6\nvalue = [6, 0]"] ;
277 -> 278 ;
279 [label="X[1] <= 586.5\nentropy = 0.971\nsamples = 5\nvalue = [3, 2]"] ;
277 -> 279 ;
280 [label="entropy = 0.0\nsamples = 2\nvalue = [0, 2]"] ;
279 -> 280 ;
281 [label="entropy = 0.0\nsamples = 3\nvalue = [3, 0]"] ;
279 -> 281 ;
282 [label="entropy = 0.0\nsamples = 9\nvalue = [0, 9]"] ;
272 -> 282 ;
283 [label="entropy = 0.0\nsamples = 24\nvalue = [24, 0]"] ;
271 -> 283 ;
284 [label="X[1] <= 593.5\nentropy = 0.206\nsamples = 62\nvalue = [2, 60]"] ;
260 -> 284 ;
285 [label="entropy = 0.0\nsamples = 54\nvalue = [0, 54]"] ;
284 -> 285 ;
286 [label="X[0] <= 180.5\nentropy = 0.811\nsamples = 8\nvalue = [2, 6]"] ;
284 -> 286 ;
287 [label="entropy = 0.0\nsamples = 2\nvalue = [2, 0]"] ;
286 -> 287 ;
288 [label="entropy = 0.0\nsamples = 6\nvalue = [0, 6]"] ;
286 -> 288 ;
289 [label="X[1] <= 598.5\nentropy = 0.149\nsamples = 94\nvalue = [92, 2]"] ;
259 -> 289 ;
290 [label="X[0] <= 181.5\nentropy = 0.65\nsamples = 12\nvalue = [10, 2]"] ;
289 -> 290 ;
291 [label="entropy = 0.0\nsamples = 10\nvalue = [10, 0]"] ;
290 -> 291 ;
292 [label="entropy = 0.0\nsamples = 2\nvalue = [0, 2]"] ;
290 -> 292 ;
293 [label="entropy = 0.0\nsamples = 82\nvalue = [82, 0]"] ;
289 -> 293 ;
294 [label="X[1] <= 390.5\nentropy = 0.239\nsamples = 4265\nvalue = [168, 4097]"] ;
180 -> 294 ;
295 [label="X[0] <= 191.5\nentropy = 0.909\nsamples = 457\nvalue = [148, 309]"] ;
294 -> 295 ;
296 [label="X[1] <= 381.5\nentropy = 0.805\nsamples = 183\nvalue = [138, 45]"] ;
295 -> 296 ;
297 [label="X[0] <= 188.5\nentropy = 0.323\nsamples = 119\nvalue = [112, 7]"] ;
296 -> 297 ;
298 [label="entropy = 0.0\nsamples = 82\nvalue = [82, 0]"] ;
297 -> 298 ;
299 [label="X[1] <= 374.5\nentropy = 0.7\nsamples = 37\nvalue = [30, 7]"] ;
297 -> 299 ;
300 [label="entropy = 0.0\nsamples = 23\nvalue = [23, 0]"] ;
299 -> 300 ;
301 [label="X[0] <= 190.5\nentropy = 1.0\nsamples = 14\nvalue = [7, 7]"] ;
299 -> 301 ;
302 [label="X[1] <= 378.5\nentropy = 0.881\nsamples = 10\nvalue = [7, 3]"] ;
301 -> 302 ;
303 [label="entropy = 0.0\nsamples = 6\nvalue = [6, 0]"] ;
302 -> 303 ;
304 [label="X[0] <= 189.5\nentropy = 0.811\nsamples = 4\nvalue = [1, 3]"] ;
302 -> 304 ;
305 [label="X[1] <= 380.0\nentropy = 1.0\nsamples = 2\nvalue = [1, 1]"] ;
304 -> 305 ;
306 [label="entropy = 0.0\nsamples = 1\nvalue = [1, 0]"] ;
305 -> 306 ;
307 [label="entropy = 0.0\nsamples = 1\nvalue = [0, 1]"] ;
305 -> 307 ;
308 [label="entropy = 0.0\nsamples = 2\nvalue = [0, 2]"] ;
304 -> 308 ;
309 [label="entropy = 0.0\nsamples = 4\nvalue = [0, 4]"] ;
301 -> 309 ;
310 [label="X[0] <= 186.5\nentropy = 0.974\nsamples = 64\nvalue = [26, 38]"] ;
296 -> 310 ;
311 [label="X[1] <= 388.5\nentropy = 0.402\nsamples = 25\nvalue = [23, 2]"] ;
310 -> 311 ;
312 [label="entropy = 0.0\nsamples = 19\nvalue = [19, 0]"] ;
311 -> 312 ;
313 [label="X[0] <= 185.5\nentropy = 0.918\nsamples = 6\nvalue = [4, 2]"] ;
311 -> 313 ;
314 [label="entropy = 0.0\nsamples = 4\nvalue = [4, 0]"] ;
313 -> 314 ;
315 [label="entropy = 0.0\nsamples = 2\nvalue = [0, 2]"] ;
313 -> 315 ;
316 [label="X[1] <= 383.5\nentropy = 0.391\nsamples = 39\nvalue = [3, 36]"] ;
310 -> 316 ;
317 [label="X[0] <= 188.5\nentropy = 0.918\nsamples = 9\nvalue = [3, 6]"] ;
316 -> 317 ;
318 [label="X[0] <= 187.5\nentropy = 0.811\nsamples = 4\nvalue = [3, 1]"] ;
317 -> 318 ;
319 [label="entropy = 0.0\nsamples = 2\nvalue = [2, 0]"] ;
318 -> 319 ;
320 [label="X[1] <= 382.5\nentropy = 1.0\nsamples = 2\nvalue = [1, 1]"] ;
318 -> 320 ;
321 [label="entropy = 0.0\nsamples = 1\nvalue = [1, 0]"] ;
320 -> 321 ;
322 [label="entropy = 0.0\nsamples = 1\nvalue = [0, 1]"] ;
320 -> 322 ;
323 [label="entropy = 0.0\nsamples = 5\nvalue = [0, 5]"] ;
317 -> 323 ;
324 [label="entropy = 0.0\nsamples = 30\nvalue = [0, 30]"] ;
316 -> 324 ;
325 [label="X[0] <= 195.5\nentropy = 0.226\nsamples = 274\nvalue = [10, 264]"] ;
295 -> 325 ;
326 [label="X[1] <= 372.5\nentropy = 0.562\nsamples = 76\nvalue = [10, 66]"] ;
325 -> 326 ;
327 [label="X[0] <= 193.5\nentropy = 0.998\nsamples = 21\nvalue = [10, 11]"] ;
326 -> 327 ;
328 [label="X[1] <= 370.5\nentropy = 0.722\nsamples = 10\nvalue = [8, 2]"] ;
327 -> 328 ;
329 [label="entropy = 0.0\nsamples = 7\nvalue = [7, 0]"] ;
328 -> 329 ;
330 [label="X[0] <= 192.5\nentropy = 0.918\nsamples = 3\nvalue = [1, 2]"] ;
328 -> 330 ;
331 [label="entropy = 0.0\nsamples = 1\nvalue = [1, 0]"] ;
330 -> 331 ;
332 [label="entropy = 0.0\nsamples = 2\nvalue = [0, 2]"] ;
330 -> 332 ;
333 [label="X[1] <= 367.0\nentropy = 0.684\nsamples = 11\nvalue = [2, 9]"] ;
327 -> 333 ;
334 [label="X[0] <= 194.5\nentropy = 0.918\nsamples = 3\nvalue = [2, 1]"] ;
333 -> 334 ;
335 [label="entropy = 0.0\nsamples = 1\nvalue = [1, 0]"] ;
334 -> 335 ;
336 [label="X[1] <= 365.5\nentropy = 1.0\nsamples = 2\nvalue = [1, 1]"] ;
334 -> 336 ;
337 [label="entropy = 0.0\nsamples = 1\nvalue = [1, 0]"] ;
336 -> 337 ;
338 [label="entropy = 0.0\nsamples = 1\nvalue = [0, 1]"] ;
336 -> 338 ;
339 [label="entropy = 0.0\nsamples = 8\nvalue = [0, 8]"] ;
333 -> 339 ;
340 [label="entropy = 0.0\nsamples = 55\nvalue = [0, 55]"] ;
326 -> 340 ;
341 [label="entropy = 0.0\nsamples = 198\nvalue = [0, 198]"] ;
325 -> 341 ;
342 [label="X[0] <= 185.5\nentropy = 0.047\nsamples = 3808\nvalue = [20, 3788]"] ;
294 -> 342 ;
343 [label="X[1] <= 605.5\nentropy = 0.24\nsamples = 480\nvalue = [19, 461]"] ;
342 -> 343 ;
344 [label="X[1] <= 396.5\nentropy = 0.113\nsamples = 463\nvalue = [7, 456]"] ;
343 -> 344 ;
345 [label="X[0] <= 184.5\nentropy = 0.994\nsamples = 11\nvalue = [6, 5]"] ;
344 -> 345 ;
346 [label="X[0] <= 183.5\nentropy = 0.592\nsamples = 7\nvalue = [6, 1]"] ;
345 -> 346 ;
347 [label="entropy = 0.0\nsamples = 4\nvalue = [4, 0]"] ;
346 -> 347 ;
348 [label="X[1] <= 393.5\nentropy = 0.918\nsamples = 3\nvalue = [2, 1]"] ;
346 -> 348 ;
349 [label="entropy = 0.0\nsamples = 2\nvalue = [2, 0]"] ;
348 -> 349 ;
350 [label="entropy = 0.0\nsamples = 1\nvalue = [0, 1]"] ;
348 -> 350 ;
351 [label="entropy = 0.0\nsamples = 4\nvalue = [0, 4]"] ;
345 -> 351 ;
352 [label="X[1] <= 603.5\nentropy = 0.023\nsamples = 452\nvalue = [1, 451]"] ;
344 -> 352 ;
353 [label="entropy = 0.0\nsamples = 447\nvalue = [0, 447]"] ;
352 -> 353 ;
354 [label="X[0] <= 183.5\nentropy = 0.722\nsamples = 5\nvalue = [1, 4]"] ;
352 -> 354 ;
355 [label="entropy = 0.0\nsamples = 1\nvalue = [1, 0]"] ;
354 -> 355 ;
356 [label="entropy = 0.0\nsamples = 4\nvalue = [0, 4]"] ;
354 -> 356 ;
357 [label="X[1] <= 609.5\nentropy = 0.874\nsamples = 17\nvalue = [12, 5]"] ;
343 -> 357 ;
358 [label="X[0] <= 184.5\nentropy = 1.0\nsamples = 10\nvalue = [5, 5]"] ;
357 -> 358 ;
359 [label="X[1] <= 606.5\nentropy = 0.65\nsamples = 6\nvalue = [5, 1]"] ;
358 -> 359 ;
360 [label="X[0] <= 183.5\nentropy = 1.0\nsamples = 2\nvalue = [1, 1]"] ;
359 -> 360 ;
361 [label="entropy = 0.0\nsamples = 1\nvalue = [1, 0]"] ;
360 -> 361 ;
362 [label="entropy = 0.0\nsamples = 1\nvalue = [0, 1]"] ;
360 -> 362 ;
363 [label="entropy = 0.0\nsamples = 4\nvalue = [4, 0]"] ;
359 -> 363 ;
364 [label="entropy = 0.0\nsamples = 4\nvalue = [0, 4]"] ;
358 -> 364 ;
365 [label="entropy = 0.0\nsamples = 7\nvalue = [7, 0]"] ;
357 -> 365 ;
366 [label="X[1] <= 611.5\nentropy = 0.004\nsamples = 3328\nvalue = [1, 3327]"] ;
342 -> 366 ;
367 [label="entropy = 0.0\nsamples = 3314\nvalue = [0, 3314]"] ;
366 -> 367 ;
368 [label="X[0] <= 186.5\nentropy = 0.371\nsamples = 14\nvalue = [1, 13]"] ;
366 -> 368 ;
369 [label="entropy = 0.0\nsamples = 1\nvalue = [1, 0]"] ;
368 -> 369 ;
370 [label="entropy = 0.0\nsamples = 13\nvalue = [0, 13]"] ;
368 -> 370 ;
371 [label="X[0] <= 188.5\nentropy = 0.663\nsamples = 1945\nvalue = [1610, 335]"] ;
179 -> 371 ;
372 [label="entropy = 0.0\nsamples = 1012\nvalue = [1012, 0]"] ;
371 -> 372 ;
373 [label="X[1] <= 647.5\nentropy = 0.942\nsamples = 933\nvalue = [598, 335]"] ;
371 -> 373 ;
374 [label="X[0] <= 196.5\nentropy = 0.858\nsamples = 447\nvalue = [126, 321]"] ;
373 -> 374 ;
375 [label="X[1] <= 628.5\nentropy = 0.997\nsamples = 208\nvalue = [111, 97]"] ;
374 -> 375 ;
376 [label="X[0] <= 192.5\nentropy = 0.462\nsamples = 92\nvalue = [9, 83]"] ;
375 -> 376 ;
377 [label="X[1] <= 619.5\nentropy = 0.713\nsamples = 46\nvalue = [9, 37]"] ;
376 -> 377 ;
378 [label="entropy = 0.0\nsamples = 24\nvalue = [0, 24]"] ;
377 -> 378 ;
379 [label="X[0] <= 190.5\nentropy = 0.976\nsamples = 22\nvalue = [9, 13]"] ;
377 -> 379 ;
380 [label="X[1] <= 622.5\nentropy = 0.881\nsamples = 10\nvalue = [7, 3]"] ;
379 -> 380 ;
381 [label="X[0] <= 189.5\nentropy = 0.971\nsamples = 5\nvalue = [2, 3]"] ;
380 -> 381 ;
382 [label="entropy = 0.0\nsamples = 2\nvalue = [2, 0]"] ;
381 -> 382 ;
383 [label="entropy = 0.0\nsamples = 3\nvalue = [0, 3]"] ;
381 -> 383 ;
384 [label="entropy = 0.0\nsamples = 5\nvalue = [5, 0]"] ;
380 -> 384 ;
385 [label="X[1] <= 626.5\nentropy = 0.65\nsamples = 12\nvalue = [2, 10]"] ;
379 -> 385 ;
386 [label="entropy = 0.0\nsamples = 9\nvalue = [0, 9]"] ;
385 -> 386 ;
387 [label="X[1] <= 627.5\nentropy = 0.918\nsamples = 3\nvalue = [2, 1]"] ;
385 -> 387 ;
388 [label="X[0] <= 191.5\nentropy = 1.0\nsamples = 2\nvalue = [1, 1]"] ;
387 -> 388 ;
389 [label="entropy = 0.0\nsamples = 1\nvalue = [1, 0]"] ;
388 -> 389 ;
390 [label="entropy = 0.0\nsamples = 1\nvalue = [0, 1]"] ;
388 -> 390 ;
391 [label="entropy = 0.0\nsamples = 1\nvalue = [1, 0]"] ;
387 -> 391 ;
392 [label="entropy = 0.0\nsamples = 46\nvalue = [0, 46]"] ;
376 -> 392 ;
393 [label="X[0] <= 193.5\nentropy = 0.531\nsamples = 116\nvalue = [102, 14]"] ;
375 -> 393 ;
394 [label="entropy = 0.0\nsamples = 79\nvalue = [79, 0]"] ;
393 -> 394 ;
395 [label="X[1] <= 633.5\nentropy = 0.957\nsamples = 37\nvalue = [23, 14]"] ;
393 -> 395 ;
396 [label="entropy = 0.0\nsamples = 12\nvalue = [0, 12]"] ;
395 -> 396 ;
397 [label="X[1] <= 636.5\nentropy = 0.402\nsamples = 25\nvalue = [23, 2]"] ;
395 -> 397 ;
398 [label="X[0] <= 195.5\nentropy = 0.971\nsamples = 5\nvalue = [3, 2]"] ;
397 -> 398 ;
399 [label="entropy = 0.0\nsamples = 3\nvalue = [3, 0]"] ;
398 -> 399 ;
400 [label="entropy = 0.0\nsamples = 2\nvalue = [0, 2]"] ;
398 -> 400 ;
401 [label="entropy = 0.0\nsamples = 20\nvalue = [20, 0]"] ;
397 -> 401 ;
402 [label="X[1] <= 638.5\nentropy = 0.338\nsamples = 239\nvalue = [15, 224]"] ;
374 -> 402 ;
403 [label="entropy = 0.0\nsamples = 179\nvalue = [0, 179]"] ;
402 -> 403 ;
404 [label="X[0] <= 199.5\nentropy = 0.811\nsamples = 60\nvalue = [15, 45]"] ;
402 -> 404 ;
405 [label="X[1] <= 643.5\nentropy = 0.881\nsamples = 20\nvalue = [14, 6]"] ;
404 -> 405 ;
406 [label="X[0] <= 197.5\nentropy = 0.971\nsamples = 10\nvalue = [4, 6]"] ;
405 -> 406 ;
407 [label="entropy = 0.0\nsamples = 3\nvalue = [3, 0]"] ;
406 -> 407 ;
408 [label="X[1] <= 641.5\nentropy = 0.592\nsamples = 7\nvalue = [1, 6]"] ;
406 -> 408 ;
409 [label="entropy = 0.0\nsamples = 4\nvalue = [0, 4]"] ;
408 -> 409 ;
410 [label="X[0] <= 198.5\nentropy = 0.918\nsamples = 3\nvalue = [1, 2]"] ;
408 -> 410 ;
411 [label="entropy = 0.0\nsamples = 1\nvalue = [1, 0]"] ;
410 -> 411 ;
412 [label="entropy = 0.0\nsamples = 2\nvalue = [0, 2]"] ;
410 -> 412 ;
413 [label="entropy = 0.0\nsamples = 10\nvalue = [10, 0]"] ;
405 -> 413 ;
414 [label="X[1] <= 646.5\nentropy = 0.169\nsamples = 40\nvalue = [1, 39]"] ;
404 -> 414 ;
415 [label="entropy = 0.0\nsamples = 35\nvalue = [0, 35]"] ;
414 -> 415 ;
416 [label="X[0] <= 200.5\nentropy = 0.722\nsamples = 5\nvalue = [1, 4]"] ;
414 -> 416 ;
417 [label="entropy = 0.0\nsamples = 1\nvalue = [1, 0]"] ;
416 -> 417 ;
418 [label="entropy = 0.0\nsamples = 4\nvalue = [0, 4]"] ;
416 -> 418 ;
419 [label="X[1] <= 655.5\nentropy = 0.188\nsamples = 486\nvalue = [472, 14]"] ;
373 -> 419 ;
420 [label="X[0] <= 202.5\nentropy = 0.577\nsamples = 102\nvalue = [88, 14]"] ;
419 -> 420 ;
421 [label="X[0] <= 201.5\nentropy = 0.091\nsamples = 87\nvalue = [86, 1]"] ;
420 -> 421 ;
422 [label="entropy = 0.0\nsamples = 80\nvalue = [80, 0]"] ;
421 -> 422 ;
423 [label="X[1] <= 649.5\nentropy = 0.592\nsamples = 7\nvalue = [6, 1]"] ;
421 -> 423 ;
424 [label="entropy = 0.0\nsamples = 1\nvalue = [0, 1]"] ;
423 -> 424 ;
425 [label="entropy = 0.0\nsamples = 6\nvalue = [6, 0]"] ;
423 -> 425 ;
426 [label="X[1] <= 653.5\nentropy = 0.567\nsamples = 15\nvalue = [2, 13]"] ;
420 -> 426 ;
427 [label="entropy = 0.0\nsamples = 11\nvalue = [0, 11]"] ;
426 -> 427 ;
428 [label="X[0] <= 204.5\nentropy = 1.0\nsamples = 4\nvalue = [2, 2]"] ;
426 -> 428 ;
429 [label="entropy = 0.0\nsamples = 2\nvalue = [2, 0]"] ;
428 -> 429 ;
430 [label="entropy = 0.0\nsamples = 2\nvalue = [0, 2]"] ;
428 -> 430 ;
431 [label="entropy = 0.0\nsamples = 384\nvalue = [384, 0]"] ;
419 -> 431 ;
432 [label="X[1] <= 333.5\nentropy = 0.255\nsamples = 14312\nvalue = [614, 13698]"] ;
140 -> 432 ;
433 [label="X[0] <= 228.5\nentropy = 0.919\nsamples = 1280\nvalue = [427, 853]"] ;
432 -> 433 ;
434 [label="X[1] <= 315.5\nentropy = 0.892\nsamples = 599\nvalue = [414, 185]"] ;
433 -> 434 ;
435 [label="X[0] <= 223.5\nentropy = 0.324\nsamples = 271\nvalue = [255, 16]"] ;
434 -> 435 ;
436 [label="entropy = 0.0\nsamples = 211\nvalue = [211, 0]"] ;
435 -> 436 ;
437 [label="X[1] <= 309.5\nentropy = 0.837\nsamples = 60\nvalue = [44, 16]"] ;
435 -> 437 ;
438 [label="entropy = 0.0\nsamples = 38\nvalue = [38, 0]"] ;
437 -> 438 ;
439 [label="X[0] <= 226.5\nentropy = 0.845\nsamples = 22\nvalue = [6, 16]"] ;
437 -> 439 ;
440 [label="X[1] <= 310.5\nentropy = 0.996\nsamples = 13\nvalue = [6, 7]"] ;
439 -> 440 ;
441 [label="entropy = 0.0\nsamples = 3\nvalue = [3, 0]"] ;
440 -> 441 ;
442 [label="X[0] <= 224.5\nentropy = 0.881\nsamples = 10\nvalue = [3, 7]"] ;
440 -> 442 ;
443 [label="X[1] <= 313.5\nentropy = 0.918\nsamples = 3\nvalue = [2, 1]"] ;
442 -> 443 ;
444 [label="entropy = 0.0\nsamples = 2\nvalue = [2, 0]"] ;
443 -> 444 ;
445 [label="entropy = 0.0\nsamples = 1\nvalue = [0, 1]"] ;
443 -> 445 ;
446 [label="X[1] <= 311.5\nentropy = 0.592\nsamples = 7\nvalue = [1, 6]"] ;
442 -> 446 ;
447 [label="X[0] <= 225.5\nentropy = 1.0\nsamples = 2\nvalue = [1, 1]"] ;
446 -> 447 ;
448 [label="entropy = 0.0\nsamples = 1\nvalue = [1, 0]"] ;
447 -> 448 ;
449 [label="entropy = 0.0\nsamples = 1\nvalue = [0, 1]"] ;
447 -> 449 ;
450 [label="entropy = 0.0\nsamples = 5\nvalue = [0, 5]"] ;
446 -> 450 ;
451 [label="entropy = 0.0\nsamples = 9\nvalue = [0, 9]"] ;
439 -> 451 ;
452 [label="X[0] <= 218.5\nentropy = 0.999\nsamples = 328\nvalue = [159, 169]"] ;
434 -> 452 ;
453 [label="X[0] <= 211.5\nentropy = 0.675\nsamples = 180\nvalue = [148, 32]"] ;
452 -> 453 ;
454 [label="entropy = 0.0\nsamples = 85\nvalue = [85, 0]"] ;
453 -> 454 ;
455 [label="X[1] <= 325.5\nentropy = 0.922\nsamples = 95\nvalue = [63, 32]"] ;
453 -> 455 ;
456 [label="X[0] <= 216.5\nentropy = 0.31\nsamples = 54\nvalue = [51, 3]"] ;
455 -> 456 ;
457 [label="entropy = 0.0\nsamples = 39\nvalue = [39, 0]"] ;
456 -> 457 ;
458 [label="X[1] <= 322.5\nentropy = 0.722\nsamples = 15\nvalue = [12, 3]"] ;
456 -> 458 ;
459 [label="entropy = 0.0\nsamples = 11\nvalue = [11, 0]"] ;
458 -> 459 ;
460 [label="X[0] <= 217.5\nentropy = 0.811\nsamples = 4\nvalue = [1, 3]"] ;
458 -> 460 ;
461 [label="X[1] <= 323.5\nentropy = 1.0\nsamples = 2\nvalue = [1, 1]"] ;
460 -> 461 ;
462 [label="entropy = 0.0\nsamples = 1\nvalue = [1, 0]"] ;
461 -> 462 ;
463 [label="entropy = 0.0\nsamples = 1\nvalue = [0, 1]"] ;
461 -> 463 ;
464 [label="entropy = 0.0\nsamples = 2\nvalue = [0, 2]"] ;
460 -> 464 ;
465 [label="X[0] <= 215.5\nentropy = 0.872\nsamples = 41\nvalue = [12, 29]"] ;
455 -> 465 ;
466 [label="X[1] <= 328.5\nentropy = 0.999\nsamples = 25\nvalue = [12, 13]"] ;
465 -> 466 ;
467 [label="X[0] <= 214.5\nentropy = 0.503\nsamples = 9\nvalue = [8, 1]"] ;
466 -> 467 ;
468 [label="entropy = 0.0\nsamples = 6\nvalue = [6, 0]"] ;
467 -> 468 ;
469 [label="X[1] <= 327.5\nentropy = 0.918\nsamples = 3\nvalue = [2, 1]"] ;
467 -> 469 ;
470 [label="entropy = 0.0\nsamples = 2\nvalue = [2, 0]"] ;
469 -> 470 ;
471 [label="entropy = 0.0\nsamples = 1\nvalue = [0, 1]"] ;
469 -> 471 ;
472 [label="X[0] <= 213.5\nentropy = 0.811\nsamples = 16\nvalue = [4, 12]"] ;
466 -> 472 ;
473 [label="X[1] <= 330.5\nentropy = 0.985\nsamples = 7\nvalue = [4, 3]"] ;
472 -> 473 ;
474 [label="entropy = 0.0\nsamples = 3\nvalue = [3, 0]"] ;
473 -> 474 ;
475 [label="X[1] <= 331.5\nentropy = 0.811\nsamples = 4\nvalue = [1, 3]"] ;
473 -> 475 ;
476 [label="X[0] <= 212.5\nentropy = 1.0\nsamples = 2\nvalue = [1, 1]"] ;
475 -> 476 ;
477 [label="entropy = 0.0\nsamples = 1\nvalue = [1, 0]"] ;
476 -> 477 ;
478 [label="entropy = 0.0\nsamples = 1\nvalue = [0, 1]"] ;
476 -> 478 ;
479 [label="entropy = 0.0\nsamples = 2\nvalue = [0, 2]"] ;
475 -> 479 ;
480 [label="entropy = 0.0\nsamples = 9\nvalue = [0, 9]"] ;
472 -> 480 ;
481 [label="entropy = 0.0\nsamples = 16\nvalue = [0, 16]"] ;
465 -> 481 ;
482 [label="X[1] <= 320.5\nentropy = 0.382\nsamples = 148\nvalue = [11, 137]"] ;
452 -> 482 ;
483 [label="X[0] <= 221.5\nentropy = 0.82\nsamples = 43\nvalue = [11, 32]"] ;
482 -> 483 ;
484 [label="X[1] <= 319.5\nentropy = 0.779\nsamples = 13\nvalue = [10, 3]"] ;
483 -> 484 ;
485 [label="X[0] <= 220.5\nentropy = 0.469\nsamples = 10\nvalue = [9, 1]"] ;
484 -> 485 ;
486 [label="entropy = 0.0\nsamples = 7\nvalue = [7, 0]"] ;
485 -> 486 ;
487 [label="X[1] <= 317.5\nentropy = 0.918\nsamples = 3\nvalue = [2, 1]"] ;
485 -> 487 ;
488 [label="entropy = 0.0\nsamples = 2\nvalue = [2, 0]"] ;
487 -> 488 ;
489 [label="entropy = 0.0\nsamples = 1\nvalue = [0, 1]"] ;
487 -> 489 ;
490 [label="X[0] <= 219.5\nentropy = 0.918\nsamples = 3\nvalue = [1, 2]"] ;
484 -> 490 ;
491 [label="entropy = 0.0\nsamples = 1\nvalue = [1, 0]"] ;
490 -> 491 ;
492 [label="entropy = 0.0\nsamples = 2\nvalue = [0, 2]"] ;
490 -> 492 ;
493 [label="X[0] <= 222.5\nentropy = 0.211\nsamples = 30\nvalue = [1, 29]"] ;
483 -> 493 ;
494 [label="X[1] <= 316.5\nentropy = 0.722\nsamples = 5\nvalue = [1, 4]"] ;
493 -> 494 ;
495 [label="entropy = 0.0\nsamples = 1\nvalue = [1, 0]"] ;
494 -> 495 ;
496 [label="entropy = 0.0\nsamples = 4\nvalue = [0, 4]"] ;
494 -> 496 ;
497 [label="entropy = 0.0\nsamples = 25\nvalue = [0, 25]"] ;
493 -> 497 ;
498 [label="entropy = 0.0\nsamples = 105\nvalue = [0, 105]"] ;
482 -> 498 ;
499 [label="X[1] <= 304.5\nentropy = 0.136\nsamples = 681\nvalue = [13, 668]"] ;
433 -> 499 ;
500 [label="X[0] <= 232.5\nentropy = 0.561\nsamples = 99\nvalue = [13, 86]"] ;
499 -> 500 ;
501 [label="X[0] <= 230.5\nentropy = 0.696\nsamples = 16\nvalue = [13, 3]"] ;
500 -> 501 ;
502 [label="entropy = 0.0\nsamples = 7\nvalue = [7, 0]"] ;
501 -> 502 ;
503 [label="X[1] <= 303.5\nentropy = 0.918\nsamples = 9\nvalue = [6, 3]"] ;
501 -> 503 ;
504 [label="X[1] <= 301.5\nentropy = 0.592\nsamples = 7\nvalue = [6, 1]"] ;
503 -> 504 ;
505 [label="entropy = 0.0\nsamples = 4\nvalue = [4, 0]"] ;
504 -> 505 ;
506 [label="X[0] <= 231.5\nentropy = 0.918\nsamples = 3\nvalue = [2, 1]"] ;
504 -> 506 ;
507 [label="entropy = 0.0\nsamples = 2\nvalue = [2, 0]"] ;
506 -> 507 ;
508 [label="entropy = 0.0\nsamples = 1\nvalue = [0, 1]"] ;
506 -> 508 ;
509 [label="entropy = 0.0\nsamples = 2\nvalue = [0, 2]"] ;
503 -> 509 ;
510 [label="entropy = 0.0\nsamples = 83\nvalue = [0, 83]"] ;
500 -> 510 ;
511 [label="entropy = 0.0\nsamples = 582\nvalue = [0, 582]"] ;
499 -> 511 ;
512 [label="X[1] <= 660.5\nentropy = 0.108\nsamples = 13032\nvalue = [187, 12845]"] ;
432 -> 512 ;
513 [label="X[1] <= 341.5\nentropy = 0.021\nsamples = 12119\nvalue = [25, 12094]"] ;
512 -> 513 ;
514 [label="X[0] <= 210.5\nentropy = 0.366\nsamples = 300\nvalue = [21, 279]"] ;
513 -> 514 ;
515 [label="X[0] <= 207.5\nentropy = 0.881\nsamples = 30\nvalue = [21, 9]"] ;
514 -> 515 ;
516 [label="entropy = 0.0\nsamples = 12\nvalue = [12, 0]"] ;
515 -> 516 ;
517 [label="X[1] <= 337.5\nentropy = 1.0\nsamples = 18\nvalue = [9, 9]"] ;
515 -> 517 ;
518 [label="X[0] <= 209.5\nentropy = 0.503\nsamples = 9\nvalue = [8, 1]"] ;
517 -> 518 ;
519 [label="entropy = 0.0\nsamples = 6\nvalue = [6, 0]"] ;
518 -> 519 ;
520 [label="X[1] <= 335.5\nentropy = 0.918\nsamples = 3\nvalue = [2, 1]"] ;
518 -> 520 ;
521 [label="entropy = 0.0\nsamples = 2\nvalue = [2, 0]"] ;
520 -> 521 ;
522 [label="entropy = 0.0\nsamples = 1\nvalue = [0, 1]"] ;
520 -> 522 ;
523 [label="X[0] <= 208.5\nentropy = 0.503\nsamples = 9\nvalue = [1, 8]"] ;
517 -> 523 ;
524 [label="X[1] <= 339.0\nentropy = 0.918\nsamples = 3\nvalue = [1, 2]"] ;
523 -> 524 ;
525 [label="entropy = 0.0\nsamples = 1\nvalue = [1, 0]"] ;
524 -> 525 ;
526 [label="entropy = 0.0\nsamples = 2\nvalue = [0, 2]"] ;
524 -> 526 ;
527 [label="entropy = 0.0\nsamples = 6\nvalue = [0, 6]"] ;
523 -> 527 ;
528 [label="entropy = 0.0\nsamples = 270\nvalue = [0, 270]"] ;
514 -> 528 ;
529 [label="X[1] <= 657.5\nentropy = 0.004\nsamples = 11819\nvalue = [4, 11815]"] ;
513 -> 529 ;
530 [label="entropy = 0.0\nsamples = 11697\nvalue = [0, 11697]"] ;
529 -> 530 ;
531 [label="X[0] <= 207.5\nentropy = 0.208\nsamples = 122\nvalue = [4, 118]"] ;
529 -> 531 ;
532 [label="X[1] <= 658.5\nentropy = 0.722\nsamples = 5\nvalue = [4, 1]"] ;
531 -> 532 ;
533 [label="X[0] <= 206.5\nentropy = 1.0\nsamples = 2\nvalue = [1, 1]"] ;
532 -> 533 ;
534 [label="entropy = 0.0\nsamples = 1\nvalue = [1, 0]"] ;
533 -> 534 ;
535 [label="entropy = 0.0\nsamples = 1\nvalue = [0, 1]"] ;
533 -> 535 ;
536 [label="entropy = 0.0\nsamples = 3\nvalue = [3, 0]"] ;
532 -> 536 ;
537 [label="entropy = 0.0\nsamples = 117\nvalue = [0, 117]"] ;
531 -> 537 ;
538 [label="X[0] <= 221.5\nentropy = 0.674\nsamples = 913\nvalue = [162, 751]"] ;
512 -> 538 ;
539 [label="X[0] <= 211.5\nentropy = 0.981\nsamples = 279\nvalue = [162, 117]"] ;
538 -> 539 ;
540 [label="X[1] <= 665.5\nentropy = 0.374\nsamples = 97\nvalue = [90, 7]"] ;
539 -> 540 ;
541 [label="X[0] <= 208.5\nentropy = 0.918\nsamples = 21\nvalue = [14, 7]"] ;
540 -> 541 ;
542 [label="entropy = 0.0\nsamples = 11\nvalue = [11, 0]"] ;
541 -> 542 ;
543 [label="X[0] <= 210.5\nentropy = 0.881\nsamples = 10\nvalue = [3, 7]"] ;
541 -> 543 ;
544 [label="X[1] <= 663.0\nentropy = 1.0\nsamples = 6\nvalue = [3, 3]"] ;
543 -> 544 ;
545 [label="entropy = 0.0\nsamples = 2\nvalue = [0, 2]"] ;
544 -> 545 ;
546 [label="X[1] <= 664.5\nentropy = 0.811\nsamples = 4\nvalue = [3, 1]"] ;
544 -> 546 ;
547 [label="X[0] <= 209.5\nentropy = 1.0\nsamples = 2\nvalue = [1, 1]"] ;
546 -> 547 ;
548 [label="entropy = 0.0\nsamples = 1\nvalue = [1, 0]"] ;
547 -> 548 ;
549 [label="entropy = 0.0\nsamples = 1\nvalue = [0, 1]"] ;
547 -> 549 ;
550 [label="entropy = 0.0\nsamples = 2\nvalue = [2, 0]"] ;
546 -> 550 ;
551 [label="entropy = 0.0\nsamples = 4\nvalue = [0, 4]"] ;
543 -> 551 ;
552 [label="entropy = 0.0\nsamples = 76\nvalue = [76, 0]"] ;
540 -> 552 ;
553 [label="X[1] <= 676.5\nentropy = 0.968\nsamples = 182\nvalue = [72, 110]"] ;
539 -> 553 ;
554 [label="X[0] <= 216.5\nentropy = 0.589\nsamples = 120\nvalue = [17, 103]"] ;
553 -> 554 ;
555 [label="X[1] <= 667.5\nentropy = 0.886\nsamples = 56\nvalue = [17, 39]"] ;
554 -> 555 ;
556 [label="entropy = 0.0\nsamples = 29\nvalue = [0, 29]"] ;
555 -> 556 ;
557 [label="X[0] <= 213.5\nentropy = 0.951\nsamples = 27\nvalue = [17, 10]"] ;
555 -> 557 ;
558 [label="entropy = 0.0\nsamples = 13\nvalue = [13, 0]"] ;
557 -> 558 ;
559 [label="X[1] <= 671.5\nentropy = 0.863\nsamples = 14\nvalue = [4, 10]"] ;
557 -> 559 ;
560 [label="entropy = 0.0\nsamples = 9\nvalue = [0, 9]"] ;
559 -> 560 ;
561 [label="X[1] <= 674.5\nentropy = 0.722\nsamples = 5\nvalue = [4, 1]"] ;
559 -> 561 ;
562 [label="X[1] <= 673.0\nentropy = 1.0\nsamples = 2\nvalue = [1, 1]"] ;
561 -> 562 ;
563 [label="entropy = 0.0\nsamples = 1\nvalue = [1, 0]"] ;
562 -> 563 ;
564 [label="entropy = 0.0\nsamples = 1\nvalue = [0, 1]"] ;
562 -> 564 ;
565 [label="entropy = 0.0\nsamples = 3\nvalue = [3, 0]"] ;
561 -> 565 ;
566 [label="entropy = 0.0\nsamples = 64\nvalue = [0, 64]"] ;
554 -> 566 ;
567 [label="X[1] <= 680.5\nentropy = 0.509\nsamples = 62\nvalue = [55, 7]"] ;
553 -> 567 ;
568 [label="X[0] <= 218.5\nentropy = 0.84\nsamples = 26\nvalue = [19, 7]"] ;
567 -> 568 ;
569 [label="X[0] <= 217.5\nentropy = 0.297\nsamples = 19\nvalue = [18, 1]"] ;
568 -> 569 ;
570 [label="entropy = 0.0\nsamples = 15\nvalue = [15, 0]"] ;
569 -> 570 ;
571 [label="X[1] <= 677.5\nentropy = 0.811\nsamples = 4\nvalue = [3, 1]"] ;
569 -> 571 ;
572 [label="entropy = 0.0\nsamples = 1\nvalue = [0, 1]"] ;
571 -> 572 ;
573 [label="entropy = 0.0\nsamples = 3\nvalue = [3, 0]"] ;
571 -> 573 ;
574 [label="X[1] <= 679.5\nentropy = 0.592\nsamples = 7\nvalue = [1, 6]"] ;
568 -> 574 ;
575 [label="entropy = 0.0\nsamples = 5\nvalue = [0, 5]"] ;
574 -> 575 ;
576 [label="X[0] <= 219.5\nentropy = 1.0\nsamples = 2\nvalue = [1, 1]"] ;
574 -> 576 ;
577 [label="entropy = 0.0\nsamples = 1\nvalue = [1, 0]"] ;
576 -> 577 ;
578 [label="entropy = 0.0\nsamples = 1\nvalue = [0, 1]"] ;
576 -> 578 ;
579 [label="entropy = 0.0\nsamples = 36\nvalue = [36, 0]"] ;
567 -> 579 ;
580 [label="entropy = 0.0\nsamples = 634\nvalue = [0, 634]"] ;
538 -> 580 ;
581 [label="X[1] <= 722.5\nentropy = 0.323\nsamples = 8766\nvalue = [8249, 517]"] ;
139 -> 581 ;
582 [label="X[0] <= 229.5\nentropy = 0.745\nsamples = 2422\nvalue = [1909, 513]"] ;
581 -> 582 ;
583 [label="X[0] <= 223.5\nentropy = 0.096\nsamples = 1700\nvalue = [1679, 21]"] ;
582 -> 583 ;
584 [label="entropy = 0.0\nsamples = 1533\nvalue = [1533, 0]"] ;
583 -> 584 ;
585 [label="X[1] <= 693.5\nentropy = 0.546\nsamples = 167\nvalue = [146, 21]"] ;
583 -> 585 ;
586 [label="X[1] <= 688.5\nentropy = 0.98\nsamples = 36\nvalue = [15, 21]"] ;
585 -> 586 ;
587 [label="X[0] <= 224.5\nentropy = 0.567\nsamples = 15\nvalue = [2, 13]"] ;
586 -> 587 ;
588 [label="X[1] <= 686.5\nentropy = 0.918\nsamples = 3\nvalue = [2, 1]"] ;
587 -> 588 ;
589 [label="entropy = 0.0\nsamples = 1\nvalue = [0, 1]"] ;
588 -> 589 ;
590 [label="entropy = 0.0\nsamples = 2\nvalue = [2, 0]"] ;
588 -> 590 ;
591 [label="entropy = 0.0\nsamples = 12\nvalue = [0, 12]"] ;
587 -> 591 ;
592 [label="X[0] <= 226.5\nentropy = 0.959\nsamples = 21\nvalue = [13, 8]"] ;
586 -> 592 ;
593 [label="entropy = 0.0\nsamples = 10\nvalue = [10, 0]"] ;
592 -> 593 ;
594 [label="X[1] <= 691.5\nentropy = 0.845\nsamples = 11\nvalue = [3, 8]"] ;
592 -> 594 ;
595 [label="entropy = 0.0\nsamples = 5\nvalue = [0, 5]"] ;
594 -> 595 ;
596 [label="X[0] <= 227.5\nentropy = 1.0\nsamples = 6\nvalue = [3, 3]"] ;
594 -> 596 ;
597 [label="entropy = 0.0\nsamples = 2\nvalue = [2, 0]"] ;
596 -> 597 ;
598 [label="X[1] <= 692.5\nentropy = 0.811\nsamples = 4\nvalue = [1, 3]"] ;
596 -> 598 ;
599 [label="entropy = 0.0\nsamples = 2\nvalue = [0, 2]"] ;
598 -> 599 ;
600 [label="X[0] <= 228.5\nentropy = 1.0\nsamples = 2\nvalue = [1, 1]"] ;
598 -> 600 ;
601 [label="entropy = 0.0\nsamples = 1\nvalue = [1, 0]"] ;
600 -> 601 ;
602 [label="entropy = 0.0\nsamples = 1\nvalue = [0, 1]"] ;
600 -> 602 ;
603 [label="entropy = 0.0\nsamples = 131\nvalue = [131, 0]"] ;
585 -> 603 ;
604 [label="X[1] <= 701.5\nentropy = 0.903\nsamples = 722\nvalue = [230, 492]"] ;
582 -> 604 ;
605 [label="X[0] <= 234.5\nentropy = 0.266\nsamples = 309\nvalue = [14, 295]"] ;
604 -> 605 ;
606 [label="X[1] <= 695.5\nentropy = 0.771\nsamples = 62\nvalue = [14, 48]"] ;
605 -> 606 ;
607 [label="entropy = 0.0\nsamples = 39\nvalue = [0, 39]"] ;
606 -> 607 ;
608 [label="X[0] <= 231.5\nentropy = 0.966\nsamples = 23\nvalue = [14, 9]"] ;
606 -> 608 ;
609 [label="entropy = 0.0\nsamples = 8\nvalue = [8, 0]"] ;
608 -> 609 ;
610 [label="X[1] <= 699.5\nentropy = 0.971\nsamples = 15\nvalue = [6, 9]"] ;
608 -> 610 ;
611 [label="X[1] <= 698.5\nentropy = 0.469\nsamples = 10\nvalue = [1, 9]"] ;
610 -> 611 ;
612 [label="entropy = 0.0\nsamples = 7\nvalue = [0, 7]"] ;
611 -> 612 ;
613 [label="X[0] <= 232.5\nentropy = 0.918\nsamples = 3\nvalue = [1, 2]"] ;
611 -> 613 ;
614 [label="entropy = 0.0\nsamples = 1\nvalue = [1, 0]"] ;
613 -> 614 ;
615 [label="entropy = 0.0\nsamples = 2\nvalue = [0, 2]"] ;
613 -> 615 ;
616 [label="entropy = 0.0\nsamples = 5\nvalue = [5, 0]"] ;
610 -> 616 ;
617 [label="entropy = 0.0\nsamples = 247\nvalue = [0, 247]"] ;
605 -> 617 ;
618 [label="X[0] <= 243.5\nentropy = 0.998\nsamples = 413\nvalue = [216, 197]"] ;
604 -> 618 ;
619 [label="X[1] <= 711.5\nentropy = 0.66\nsamples = 222\nvalue = [184, 38]"] ;
618 -> 619 ;
620 [label="X[0] <= 236.5\nentropy = 0.948\nsamples = 101\nvalue = [64, 37]"] ;
619 -> 620 ;
621 [label="X[1] <= 702.5\nentropy = 0.139\nsamples = 51\nvalue = [50, 1]"] ;
620 -> 621 ;
622 [label="X[0] <= 235.0\nentropy = 0.65\nsamples = 6\nvalue = [5, 1]"] ;
621 -> 622 ;
623 [label="entropy = 0.0\nsamples = 5\nvalue = [5, 0]"] ;
622 -> 623 ;
624 [label="entropy = 0.0\nsamples = 1\nvalue = [0, 1]"] ;
622 -> 624 ;
625 [label="entropy = 0.0\nsamples = 45\nvalue = [45, 0]"] ;
621 -> 625 ;
626 [label="X[1] <= 708.5\nentropy = 0.855\nsamples = 50\nvalue = [14, 36]"] ;
620 -> 626 ;
627 [label="X[0] <= 238.5\nentropy = 0.449\nsamples = 32\nvalue = [3, 29]"] ;
626 -> 627 ;
628 [label="X[1] <= 706.5\nentropy = 0.881\nsamples = 10\nvalue = [3, 7]"] ;
627 -> 628 ;
629 [label="X[1] <= 704.5\nentropy = 0.544\nsamples = 8\nvalue = [1, 7]"] ;
628 -> 629 ;
630 [label="entropy = 0.0\nsamples = 5\nvalue = [0, 5]"] ;
629 -> 630 ;
631 [label="X[0] <= 237.5\nentropy = 0.918\nsamples = 3\nvalue = [1, 2]"] ;
629 -> 631 ;
632 [label="entropy = 0.0\nsamples = 1\nvalue = [1, 0]"] ;
631 -> 632 ;
633 [label="entropy = 0.0\nsamples = 2\nvalue = [0, 2]"] ;
631 -> 633 ;
634 [label="entropy = 0.0\nsamples = 2\nvalue = [2, 0]"] ;
628 -> 634 ;
635 [label="entropy = 0.0\nsamples = 22\nvalue = [0, 22]"] ;
627 -> 635 ;
636 [label="X[0] <= 240.5\nentropy = 0.964\nsamples = 18\nvalue = [11, 7]"] ;
626 -> 636 ;
637 [label="entropy = 0.0\nsamples = 10\nvalue = [10, 0]"] ;
636 -> 637 ;
638 [label="X[0] <= 241.5\nentropy = 0.544\nsamples = 8\nvalue = [1, 7]"] ;
636 -> 638 ;
639 [label="X[1] <= 709.5\nentropy = 1.0\nsamples = 2\nvalue = [1, 1]"] ;
638 -> 639 ;
640 [label="entropy = 0.0\nsamples = 1\nvalue = [0, 1]"] ;
639 -> 640 ;
641 [label="entropy = 0.0\nsamples = 1\nvalue = [1, 0]"] ;
639 -> 641 ;
642 [label="entropy = 0.0\nsamples = 6\nvalue = [0, 6]"] ;
638 -> 642 ;
643 [label="X[0] <= 242.5\nentropy = 0.069\nsamples = 121\nvalue = [120, 1]"] ;
619 -> 643 ;
644 [label="entropy = 0.0\nsamples = 111\nvalue = [111, 0]"] ;
643 -> 644 ;
645 [label="X[1] <= 712.5\nentropy = 0.469\nsamples = 10\nvalue = [9, 1]"] ;
643 -> 645 ;
646 [label="entropy = 0.0\nsamples = 1\nvalue = [0, 1]"] ;
645 -> 646 ;
647 [label="entropy = 0.0\nsamples = 9\nvalue = [9, 0]"] ;
645 -> 647 ;
648 [label="X[1] <= 715.5\nentropy = 0.652\nsamples = 191\nvalue = [32, 159]"] ;
618 -> 648 ;
649 [label="X[0] <= 244.5\nentropy = 0.067\nsamples = 125\nvalue = [1, 124]"] ;
648 -> 649 ;
650 [label="X[1] <= 713.0\nentropy = 0.469\nsamples = 10\nvalue = [1, 9]"] ;
649 -> 650 ;
651 [label="entropy = 0.0\nsamples = 9\nvalue = [0, 9]"] ;
650 -> 651 ;
652 [label="entropy = 0.0\nsamples = 1\nvalue = [1, 0]"] ;
650 -> 652 ;
653 [label="entropy = 0.0\nsamples = 115\nvalue = [0, 115]"] ;
649 -> 653 ;
654 [label="X[0] <= 249.5\nentropy = 0.997\nsamples = 66\nvalue = [31, 35]"] ;
648 -> 654 ;
655 [label="X[0] <= 247.5\nentropy = 0.602\nsamples = 34\nvalue = [29, 5]"] ;
654 -> 655 ;
656 [label="entropy = 0.0\nsamples = 22\nvalue = [22, 0]"] ;
655 -> 656 ;
657 [label="X[1] <= 718.5\nentropy = 0.98\nsamples = 12\nvalue = [7, 5]"] ;
655 -> 657 ;
658 [label="entropy = 0.0\nsamples = 5\nvalue = [0, 5]"] ;
657 -> 658 ;
659 [label="entropy = 0.0\nsamples = 7\nvalue = [7, 0]"] ;
657 -> 659 ;
660 [label="X[1] <= 721.5\nentropy = 0.337\nsamples = 32\nvalue = [2, 30]"] ;
654 -> 660 ;
661 [label="entropy = 0.0\nsamples = 27\nvalue = [0, 27]"] ;
660 -> 661 ;
662 [label="X[0] <= 251.5\nentropy = 0.971\nsamples = 5\nvalue = [2, 3]"] ;
660 -> 662 ;
663 [label="entropy = 0.0\nsamples = 2\nvalue = [2, 0]"] ;
662 -> 663 ;
664 [label="entropy = 0.0\nsamples = 3\nvalue = [0, 3]"] ;
662 -> 664 ;
665 [label="X[1] <= 724.5\nentropy = 0.008\nsamples = 6344\nvalue = [6340, 4]"] ;
581 -> 665 ;
666 [label="X[0] <= 253.5\nentropy = 0.208\nsamples = 122\nvalue = [118, 4]"] ;
665 -> 666 ;
667 [label="entropy = 0.0\nsamples = 118\nvalue = [118, 0]"] ;
666 -> 667 ;
668 [label="entropy = 0.0\nsamples = 4\nvalue = [0, 4]"] ;
666 -> 668 ;
669 [label="entropy = 0.0\nsamples = 6222\nvalue = [6222, 0]"] ;
665 -> 669 ;
670 [label="X[0] <= 718.5\nentropy = 0.583\nsamples = 278386\nvalue = [38847, 239539]"] ;
72 -> 670 ;
671 [label="X[1] <= 228.5\nentropy = 0.362\nsamples = 225422\nvalue = [15566, 209856]"] ;
670 -> 671 ;
672 [label="X[0] <= 333.5\nentropy = 0.966\nsamples = 19608\nvalue = [7683, 11925]"] ;
671 -> 672 ;
673 [label="X[1] <= 212.5\nentropy = 0.292\nsamples = 3331\nvalue = [3160, 171]"] ;
672 -> 673 ;
674 [label="entropy = 0.0\nsamples = 2401\nvalue = [2401, 0]"] ;
673 -> 674 ;
675 [label="X[0] <= 309.5\nentropy = 0.688\nsamples = 930\nvalue = [759, 171]"] ;
673 -> 675 ;
676 [label="X[0] <= 307.5\nentropy = 0.03\nsamples = 650\nvalue = [648, 2]"] ;
675 -> 676 ;
677 [label="entropy = 0.0\nsamples = 628\nvalue = [628, 0]"] ;
676 -> 677 ;
678 [label="X[1] <= 226.5\nentropy = 0.439\nsamples = 22\nvalue = [20, 2]"] ;
676 -> 678 ;
679 [label="entropy = 0.0\nsamples = 19\nvalue = [19, 0]"] ;
678 -> 679 ;
680 [label="X[0] <= 308.5\nentropy = 0.918\nsamples = 3\nvalue = [1, 2]"] ;
678 -> 680 ;
681 [label="X[1] <= 227.5\nentropy = 1.0\nsamples = 2\nvalue = [1, 1]"] ;
680 -> 681 ;
682 [label="entropy = 0.0\nsamples = 1\nvalue = [1, 0]"] ;
681 -> 682 ;
683 [label="entropy = 0.0\nsamples = 1\nvalue = [0, 1]"] ;
681 -> 683 ;
684 [label="entropy = 0.0\nsamples = 1\nvalue = [0, 1]"] ;
680 -> 684 ;
685 [label="X[1] <= 221.5\nentropy = 0.969\nsamples = 280\nvalue = [111, 169]"] ;
675 -> 685 ;
686 [label="X[0] <= 325.5\nentropy = 0.949\nsamples = 155\nvalue = [98, 57]"] ;
685 -> 686 ;
687 [label="X[0] <= 317.5\nentropy = 0.602\nsamples = 109\nvalue = [93, 16]"] ;
686 -> 687 ;
688 [label="entropy = 0.0\nsamples = 55\nvalue = [55, 0]"] ;
687 -> 688 ;
689 [label="X[1] <= 217.5\nentropy = 0.877\nsamples = 54\nvalue = [38, 16]"] ;
687 -> 689 ;
690 [label="X[1] <= 216.5\nentropy = 0.206\nsamples = 31\nvalue = [30, 1]"] ;
689 -> 690 ;
691 [label="entropy = 0.0\nsamples = 25\nvalue = [25, 0]"] ;
690 -> 691 ;
692 [label="X[0] <= 323.0\nentropy = 0.65\nsamples = 6\nvalue = [5, 1]"] ;
690 -> 692 ;
693 [label="entropy = 0.0\nsamples = 5\nvalue = [5, 0]"] ;
692 -> 693 ;
694 [label="entropy = 0.0\nsamples = 1\nvalue = [0, 1]"] ;
692 -> 694 ;
695 [label="X[1] <= 220.5\nentropy = 0.932\nsamples = 23\nvalue = [8, 15]"] ;
689 -> 695 ;
696 [label="X[0] <= 320.5\nentropy = 0.998\nsamples = 17\nvalue = [8, 9]"] ;
695 -> 696 ;
697 [label="X[1] <= 219.5\nentropy = 0.592\nsamples = 7\nvalue = [6, 1]"] ;
696 -> 697 ;
698 [label="entropy = 0.0\nsamples = 4\nvalue = [4, 0]"] ;
697 -> 698 ;
699 [label="X[0] <= 319.5\nentropy = 0.918\nsamples = 3\nvalue = [2, 1]"] ;
697 -> 699 ;
700 [label="entropy = 0.0\nsamples = 2\nvalue = [2, 0]"] ;
699 -> 700 ;
701 [label="entropy = 0.0\nsamples = 1\nvalue = [0, 1]"] ;
699 -> 701 ;
702 [label="X[1] <= 218.5\nentropy = 0.722\nsamples = 10\nvalue = [2, 8]"] ;
696 -> 702 ;
703 [label="X[0] <= 322.5\nentropy = 1.0\nsamples = 4\nvalue = [2, 2]"] ;
702 -> 703 ;
704 [label="entropy = 0.0\nsamples = 2\nvalue = [2, 0]"] ;
703 -> 704 ;
705 [label="entropy = 0.0\nsamples = 2\nvalue = [0, 2]"] ;
703 -> 705 ;
706 [label="entropy = 0.0\nsamples = 6\nvalue = [0, 6]"] ;
702 -> 706 ;
707 [label="entropy = 0.0\nsamples = 6\nvalue = [0, 6]"] ;
695 -> 707 ;
708 [label="X[1] <= 215.5\nentropy = 0.496\nsamples = 46\nvalue = [5, 41]"] ;
686 -> 708 ;
709 [label="X[0] <= 328.5\nentropy = 0.874\nsamples = 17\nvalue = [5, 12]"] ;
708 -> 709 ;
710 [label="X[1] <= 214.5\nentropy = 0.65\nsamples = 6\nvalue = [5, 1]"] ;
709 -> 710 ;
711 [label="entropy = 0.0\nsamples = 4\nvalue = [4, 0]"] ;
710 -> 711 ;
712 [label="X[0] <= 327.0\nentropy = 1.0\nsamples = 2\nvalue = [1, 1]"] ;
710 -> 712 ;
713 [label="entropy = 0.0\nsamples = 1\nvalue = [1, 0]"] ;
712 -> 713 ;
714 [label="entropy = 0.0\nsamples = 1\nvalue = [0, 1]"] ;
712 -> 714 ;
715 [label="entropy = 0.0\nsamples = 11\nvalue = [0, 11]"] ;
709 -> 715 ;
716 [label="entropy = 0.0\nsamples = 29\nvalue = [0, 29]"] ;
708 -> 716 ;
717 [label="X[0] <= 316.5\nentropy = 0.482\nsamples = 125\nvalue = [13, 112]"] ;
685 -> 717 ;
718 [label="X[1] <= 224.5\nentropy = 0.967\nsamples = 33\nvalue = [13, 20]"] ;
717 -> 718 ;
719 [label="X[0] <= 313.5\nentropy = 0.837\nsamples = 15\nvalue = [11, 4]"] ;
718 -> 719 ;
720 [label="entropy = 0.0\nsamples = 8\nvalue = [8, 0]"] ;
719 -> 720 ;
721 [label="X[1] <= 223.5\nentropy = 0.985\nsamples = 7\nvalue = [3, 4]"] ;
719 -> 721 ;
722 [label="X[1] <= 222.5\nentropy = 0.811\nsamples = 4\nvalue = [3, 1]"] ;
721 -> 722 ;
723 [label="entropy = 0.0\nsamples = 2\nvalue = [2, 0]"] ;
722 -> 723 ;
724 [label="X[0] <= 314.5\nentropy = 1.0\nsamples = 2\nvalue = [1, 1]"] ;
722 -> 724 ;
725 [label="entropy = 0.0\nsamples = 1\nvalue = [1, 0]"] ;
724 -> 725 ;
726 [label="entropy = 0.0\nsamples = 1\nvalue = [0, 1]"] ;
724 -> 726 ;
727 [label="entropy = 0.0\nsamples = 3\nvalue = [0, 3]"] ;
721 -> 727 ;
728 [label="X[0] <= 311.5\nentropy = 0.503\nsamples = 18\nvalue = [2, 16]"] ;
718 -> 728 ;
729 [label="X[1] <= 226.5\nentropy = 0.918\nsamples = 6\nvalue = [2, 4]"] ;
728 -> 729 ;
730 [label="entropy = 0.0\nsamples = 2\nvalue = [2, 0]"] ;
729 -> 730 ;
731 [label="entropy = 0.0\nsamples = 4\nvalue = [0, 4]"] ;
729 -> 731 ;
732 [label="entropy = 0.0\nsamples = 12\nvalue = [0, 12]"] ;
728 -> 732 ;
733 [label="entropy = 0.0\nsamples = 92\nvalue = [0, 92]"] ;
717 -> 733 ;
734 [label="X[0] <= 648.5\nentropy = 0.853\nsamples = 16277\nvalue = [4523, 11754]"] ;
672 -> 734 ;
735 [label="X[1] <= 197.5\nentropy = 0.617\nsamples = 13300\nvalue = [2034, 11266]"] ;
734 -> 735 ;
736 [label="X[0] <= 383.5\nentropy = 0.904\nsamples = 5925\nvalue = [1893, 4032]"] ;
735 -> 736 ;
737 [label="X[1] <= 188.5\nentropy = 0.461\nsamples = 945\nvalue = [853, 92]"] ;
736 -> 737 ;
738 [label="entropy = 0.0\nsamples = 605\nvalue = [605, 0]"] ;
737 -> 738 ;
739 [label="X[0] <= 366.5\nentropy = 0.842\nsamples = 340\nvalue = [248, 92]"] ;
737 -> 739 ;
740 [label="X[0] <= 361.5\nentropy = 0.154\nsamples = 224\nvalue = [219, 5]"] ;
739 -> 740 ;
741 [label="entropy = 0.0\nsamples = 194\nvalue = [194, 0]"] ;
740 -> 741 ;
742 [label="X[1] <= 195.5\nentropy = 0.65\nsamples = 30\nvalue = [25, 5]"] ;
740 -> 742 ;
743 [label="entropy = 0.0\nsamples = 24\nvalue = [24, 0]"] ;
742 -> 743 ;
744 [label="X[0] <= 362.5\nentropy = 0.65\nsamples = 6\nvalue = [1, 5]"] ;
742 -> 744 ;
745 [label="X[1] <= 196.5\nentropy = 1.0\nsamples = 2\nvalue = [1, 1]"] ;
744 -> 745 ;
746 [label="entropy = 0.0\nsamples = 1\nvalue = [1, 0]"] ;
745 -> 746 ;
747 [label="entropy = 0.0\nsamples = 1\nvalue = [0, 1]"] ;
745 -> 747 ;
748 [label="entropy = 0.0\nsamples = 4\nvalue = [0, 4]"] ;
744 -> 748 ;
749 [label="X[1] <= 193.5\nentropy = 0.811\nsamples = 116\nvalue = [29, 87]"] ;
739 -> 749 ;
750 [label="X[0] <= 372.5\nentropy = 0.997\nsamples = 62\nvalue = [29, 33]"] ;
749 -> 750 ;
751 [label="X[1] <= 192.5\nentropy = 0.454\nsamples = 21\nvalue = [19, 2]"] ;
750 -> 751 ;
752 [label="entropy = 0.0\nsamples = 16\nvalue = [16, 0]"] ;
751 -> 752 ;
753 [label="X[0] <= 370.5\nentropy = 0.971\nsamples = 5\nvalue = [3, 2]"] ;
751 -> 753 ;
754 [label="entropy = 0.0\nsamples = 3\nvalue = [3, 0]"] ;
753 -> 754 ;
755 [label="entropy = 0.0\nsamples = 2\nvalue = [0, 2]"] ;
753 -> 755 ;
756 [label="X[1] <= 190.5\nentropy = 0.801\nsamples = 41\nvalue = [10, 31]"] ;
750 -> 756 ;
757 [label="X[0] <= 380.5\nentropy = 0.989\nsamples = 16\nvalue = [9, 7]"] ;
756 -> 757 ;
758 [label="X[1] <= 189.5\nentropy = 0.684\nsamples = 11\nvalue = [9, 2]"] ;
757 -> 758 ;
759 [label="entropy = 0.0\nsamples = 7\nvalue = [7, 0]"] ;
758 -> 759 ;
760 [label="X[0] <= 377.5\nentropy = 1.0\nsamples = 4\nvalue = [2, 2]"] ;
758 -> 760 ;
761 [label="entropy = 0.0\nsamples = 2\nvalue = [2, 0]"] ;
760 -> 761 ;
762 [label="entropy = 0.0\nsamples = 2\nvalue = [0, 2]"] ;
760 -> 762 ;
763 [label="entropy = 0.0\nsamples = 5\nvalue = [0, 5]"] ;
757 -> 763 ;
764 [label="X[0] <= 373.5\nentropy = 0.242\nsamples = 25\nvalue = [1, 24]"] ;
756 -> 764 ;
765 [label="X[1] <= 191.5\nentropy = 0.918\nsamples = 3\nvalue = [1, 2]"] ;
764 -> 765 ;
766 [label="entropy = 0.0\nsamples = 1\nvalue = [1, 0]"] ;
765 -> 766 ;
767 [label="entropy = 0.0\nsamples = 2\nvalue = [0, 2]"] ;
765 -> 767 ;
768 [label="entropy = 0.0\nsamples = 22\nvalue = [0, 22]"] ;
764 -> 768 ;
769 [label="entropy = 0.0\nsamples = 54\nvalue = [0, 54]"] ;
749 -> 769 ;
770 [label="X[0] <= 594.5\nentropy = 0.739\nsamples = 4980\nvalue = [1040, 3940]"] ;
736 -> 770 ;
771 [label="X[0] <= 423.5\nentropy = 0.433\nsamples = 3986\nvalue = [355, 3631]"] ;
770 -> 771 ;
772 [label="X[1] <= 183.5\nentropy = 0.917\nsamples = 740\nvalue = [246, 494]"] ;
771 -> 772 ;
773 [label="X[1] <= 176.5\nentropy = 0.85\nsamples = 315\nvalue = [228, 87]"] ;
772 -> 773 ;
774 [label="entropy = 0.0\nsamples = 107\nvalue = [107, 0]"] ;
773 -> 774 ;
775 [label="X[0] <= 405.5\nentropy = 0.981\nsamples = 208\nvalue = [121, 87]"] ;
773 -> 775 ;
776 [label="X[0] <= 396.5\nentropy = 0.506\nsamples = 116\nvalue = [103, 13]"] ;
775 -> 776 ;
777 [label="entropy = 0.0\nsamples = 70\nvalue = [70, 0]"] ;
776 -> 777 ;
778 [label="X[1] <= 181.5\nentropy = 0.859\nsamples = 46\nvalue = [33, 13]"] ;
776 -> 778 ;
779 [label="X[1] <= 180.5\nentropy = 0.201\nsamples = 32\nvalue = [31, 1]"] ;
778 -> 779 ;
780 [label="entropy = 0.0\nsamples = 27\nvalue = [27, 0]"] ;
779 -> 780 ;
781 [label="X[0] <= 403.5\nentropy = 0.722\nsamples = 5\nvalue = [4, 1]"] ;
779 -> 781 ;
782 [label="entropy = 0.0\nsamples = 4\nvalue = [4, 0]"] ;
781 -> 782 ;
783 [label="entropy = 0.0\nsamples = 1\nvalue = [0, 1]"] ;
781 -> 783 ;
784 [label="X[0] <= 399.5\nentropy = 0.592\nsamples = 14\nvalue = [2, 12]"] ;
778 -> 784 ;
785 [label="X[1] <= 182.5\nentropy = 1.0\nsamples = 4\nvalue = [2, 2]"] ;
784 -> 785 ;
786 [label="entropy = 0.0\nsamples = 2\nvalue = [2, 0]"] ;
785 -> 786 ;
787 [label="entropy = 0.0\nsamples = 2\nvalue = [0, 2]"] ;
785 -> 787 ;
788 [label="entropy = 0.0\nsamples = 10\nvalue = [0, 10]"] ;
784 -> 788 ;
789 [label="X[1] <= 178.5\nentropy = 0.713\nsamples = 92\nvalue = [18, 74]"] ;
775 -> 789 ;
790 [label="X[0] <= 417.5\nentropy = 0.975\nsamples = 27\nvalue = [16, 11]"] ;
789 -> 790 ;
791 [label="X[0] <= 413.5\nentropy = 0.629\nsamples = 19\nvalue = [16, 3]"] ;
790 -> 791 ;
792 [label="entropy = 0.0\nsamples = 12\nvalue = [12, 0]"] ;
791 -> 792 ;
793 [label="X[1] <= 177.5\nentropy = 0.985\nsamples = 7\nvalue = [4, 3]"] ;
791 -> 793 ;
794 [label="entropy = 0.0\nsamples = 4\nvalue = [4, 0]"] ;
793 -> 794 ;
795 [label="entropy = 0.0\nsamples = 3\nvalue = [0, 3]"] ;
793 -> 795 ;
796 [label="entropy = 0.0\nsamples = 8\nvalue = [0, 8]"] ;
790 -> 796 ;
797 [label="X[1] <= 179.5\nentropy = 0.198\nsamples = 65\nvalue = [2, 63]"] ;
789 -> 797 ;
798 [label="X[0] <= 410.5\nentropy = 0.592\nsamples = 14\nvalue = [2, 12]"] ;
797 -> 798 ;
799 [label="entropy = 0.0\nsamples = 2\nvalue = [2, 0]"] ;
798 -> 799 ;
800 [label="entropy = 0.0\nsamples = 12\nvalue = [0, 12]"] ;
798 -> 800 ;
801 [label="entropy = 0.0\nsamples = 51\nvalue = [0, 51]"] ;
797 -> 801 ;
802 [label="X[1] <= 187.5\nentropy = 0.253\nsamples = 425\nvalue = [18, 407]"] ;
772 -> 802 ;
803 [label="X[0] <= 390.5\nentropy = 0.629\nsamples = 114\nvalue = [18, 96]"] ;
802 -> 803 ;
804 [label="X[1] <= 186.5\nentropy = 0.722\nsamples = 20\nvalue = [16, 4]"] ;
803 -> 804 ;
805 [label="X[0] <= 389.5\nentropy = 0.337\nsamples = 16\nvalue = [15, 1]"] ;
804 -> 805 ;
806 [label="entropy = 0.0\nsamples = 13\nvalue = [13, 0]"] ;
805 -> 806 ;
807 [label="X[1] <= 185.5\nentropy = 0.918\nsamples = 3\nvalue = [2, 1]"] ;
805 -> 807 ;
808 [label="entropy = 0.0\nsamples = 2\nvalue = [2, 0]"] ;
807 -> 808 ;
809 [label="entropy = 0.0\nsamples = 1\nvalue = [0, 1]"] ;
807 -> 809 ;
810 [label="X[0] <= 385.0\nentropy = 0.811\nsamples = 4\nvalue = [1, 3]"] ;
804 -> 810 ;
811 [label="entropy = 0.0\nsamples = 1\nvalue = [1, 0]"] ;
810 -> 811 ;
812 [label="entropy = 0.0\nsamples = 3\nvalue = [0, 3]"] ;
810 -> 812 ;
813 [label="X[0] <= 393.5\nentropy = 0.149\nsamples = 94\nvalue = [2, 92]"] ;
803 -> 813 ;
814 [label="X[1] <= 184.5\nentropy = 0.684\nsamples = 11\nvalue = [2, 9]"] ;
813 -> 814 ;
815 [label="entropy = 0.0\nsamples = 2\nvalue = [2, 0]"] ;
814 -> 815 ;
816 [label="entropy = 0.0\nsamples = 9\nvalue = [0, 9]"] ;
814 -> 816 ;
817 [label="entropy = 0.0\nsamples = 83\nvalue = [0, 83]"] ;
813 -> 817 ;
818 [label="entropy = 0.0\nsamples = 311\nvalue = [0, 311]"] ;
802 -> 818 ;
819 [label="X[1] <= 178.5\nentropy = 0.212\nsamples = 3246\nvalue = [109, 3137]"] ;
771 -> 819 ;
820 [label="X[0] <= 569.5\nentropy = 0.568\nsamples = 784\nvalue = [105, 679]"] ;
819 -> 820 ;
821 [label="X[0] <= 435.5\nentropy = 0.187\nsamples = 666\nvalue = [19, 647]"] ;
820 -> 821 ;
822 [label="X[1] <= 174.5\nentropy = 0.866\nsamples = 59\nvalue = [17, 42]"] ;
821 -> 822 ;
823 [label="X[0] <= 430.5\nentropy = 0.792\nsamples = 21\nvalue = [16, 5]"] ;
822 -> 823 ;
824 [label="entropy = 0.0\nsamples = 13\nvalue = [13, 0]"] ;
823 -> 824 ;
825 [label="X[1] <= 173.5\nentropy = 0.954\nsamples = 8\nvalue = [3, 5]"] ;
823 -> 825 ;
826 [label="entropy = 0.0\nsamples = 3\nvalue = [3, 0]"] ;
825 -> 826 ;
827 [label="entropy = 0.0\nsamples = 5\nvalue = [0, 5]"] ;
825 -> 827 ;
828 [label="X[0] <= 425.5\nentropy = 0.176\nsamples = 38\nvalue = [1, 37]"] ;
822 -> 828 ;
829 [label="X[1] <= 175.5\nentropy = 0.592\nsamples = 7\nvalue = [1, 6]"] ;
828 -> 829 ;
830 [label="entropy = 0.0\nsamples = 1\nvalue = [1, 0]"] ;
829 -> 830 ;
831 [label="entropy = 0.0\nsamples = 6\nvalue = [0, 6]"] ;
829 -> 831 ;
832 [label="entropy = 0.0\nsamples = 31\nvalue = [0, 31]"] ;
828 -> 832 ;
833 [label="X[0] <= 565.5\nentropy = 0.032\nsamples = 607\nvalue = [2, 605]"] ;
821 -> 833 ;
834 [label="entropy = 0.0\nsamples = 587\nvalue = [0, 587]"] ;
833 -> 834 ;
835 [label="X[1] <= 173.5\nentropy = 0.469\nsamples = 20\nvalue = [2, 18]"] ;
833 -> 835 ;
836 [label="entropy = 0.0\nsamples = 2\nvalue = [2, 0]"] ;
835 -> 836 ;
837 [label="entropy = 0.0\nsamples = 18\nvalue = [0, 18]"] ;
835 -> 837 ;
838 [label="X[1] <= 174.5\nentropy = 0.843\nsamples = 118\nvalue = [86, 32]"] ;
820 -> 838 ;
839 [label="entropy = 0.0\nsamples = 42\nvalue = [42, 0]"] ;
838 -> 839 ;
840 [label="X[0] <= 586.5\nentropy = 0.982\nsamples = 76\nvalue = [44, 32]"] ;
838 -> 840 ;
841 [label="X[0] <= 574.5\nentropy = 0.961\nsamples = 52\nvalue = [20, 32]"] ;
840 -> 841 ;
842 [label="entropy = 0.0\nsamples = 15\nvalue = [0, 15]"] ;
841 -> 842 ;
843 [label="X[1] <= 176.5\nentropy = 0.995\nsamples = 37\nvalue = [20, 17]"] ;
841 -> 843 ;
844 [label="X[0] <= 577.5\nentropy = 0.592\nsamples = 21\nvalue = [18, 3]"] ;
843 -> 844 ;
845 [label="X[1] <= 175.5\nentropy = 1.0\nsamples = 6\nvalue = [3, 3]"] ;
844 -> 845 ;
846 [label="entropy = 0.0\nsamples = 3\nvalue = [3, 0]"] ;
845 -> 846 ;
847 [label="entropy = 0.0\nsamples = 3\nvalue = [0, 3]"] ;
845 -> 847 ;
848 [label="entropy = 0.0\nsamples = 15\nvalue = [15, 0]"] ;
844 -> 848 ;
849 [label="X[0] <= 583.0\nentropy = 0.544\nsamples = 16\nvalue = [2, 14]"] ;
843 -> 849 ;
850 [label="entropy = 0.0\nsamples = 11\nvalue = [0, 11]"] ;
849 -> 850 ;
851 [label="X[1] <= 177.5\nentropy = 0.971\nsamples = 5\nvalue = [2, 3]"] ;
849 -> 851 ;
852 [label="entropy = 0.0\nsamples = 2\nvalue = [2, 0]"] ;
851 -> 852 ;
853 [label="entropy = 0.0\nsamples = 3\nvalue = [0, 3]"] ;
851 -> 853 ;
854 [label="entropy = 0.0\nsamples = 24\nvalue = [24, 0]"] ;
840 -> 854 ;
855 [label="X[0] <= 590.5\nentropy = 0.017\nsamples = 2462\nvalue = [4, 2458]"] ;
819 -> 855 ;
856 [label="entropy = 0.0\nsamples = 2398\nvalue = [0, 2398]"] ;
855 -> 856 ;
857 [label="X[1] <= 180.5\nentropy = 0.337\nsamples = 64\nvalue = [4, 60]"] ;
855 -> 857 ;
858 [label="X[1] <= 179.5\nentropy = 0.985\nsamples = 7\nvalue = [4, 3]"] ;
857 -> 858 ;
859 [label="entropy = 0.0\nsamples = 3\nvalue = [3, 0]"] ;
858 -> 859 ;
860 [label="X[0] <= 593.5\nentropy = 0.811\nsamples = 4\nvalue = [1, 3]"] ;
858 -> 860 ;
861 [label="entropy = 0.0\nsamples = 3\nvalue = [0, 3]"] ;
860 -> 861 ;
862 [label="entropy = 0.0\nsamples = 1\nvalue = [1, 0]"] ;
860 -> 862 ;
863 [label="entropy = 0.0\nsamples = 57\nvalue = [0, 57]"] ;
857 -> 863 ;
864 [label="X[1] <= 183.5\nentropy = 0.894\nsamples = 994\nvalue = [685, 309]"] ;
770 -> 864 ;
865 [label="X[0] <= 603.5\nentropy = 0.171\nsamples = 433\nvalue = [422, 11]"] ;
864 -> 865 ;
866 [label="X[1] <= 181.5\nentropy = 0.622\nsamples = 71\nvalue = [60, 11]"] ;
865 -> 866 ;
867 [label="X[1] <= 180.5\nentropy = 0.124\nsamples = 59\nvalue = [58, 1]"] ;
866 -> 867 ;
868 [label="entropy = 0.0\nsamples = 53\nvalue = [53, 0]"] ;
867 -> 868 ;
869 [label="X[0] <= 596.5\nentropy = 0.65\nsamples = 6\nvalue = [5, 1]"] ;
867 -> 869 ;
870 [label="entropy = 0.0\nsamples = 1\nvalue = [0, 1]"] ;
869 -> 870 ;
871 [label="entropy = 0.0\nsamples = 5\nvalue = [5, 0]"] ;
869 -> 871 ;
872 [label="X[0] <= 599.0\nentropy = 0.65\nsamples = 12\nvalue = [2, 10]"] ;
866 -> 872 ;
873 [label="entropy = 0.0\nsamples = 6\nvalue = [0, 6]"] ;
872 -> 873 ;
874 [label="X[1] <= 182.5\nentropy = 0.918\nsamples = 6\nvalue = [2, 4]"] ;
872 -> 874 ;
875 [label="entropy = 0.0\nsamples = 2\nvalue = [2, 0]"] ;
874 -> 875 ;
876 [label="entropy = 0.0\nsamples = 4\nvalue = [0, 4]"] ;
874 -> 876 ;
877 [label="entropy = 0.0\nsamples = 362\nvalue = [362, 0]"] ;
865 -> 877 ;
878 [label="X[0] <= 628.5\nentropy = 0.997\nsamples = 561\nvalue = [263, 298]"] ;
864 -> 878 ;
879 [label="X[1] <= 190.5\nentropy = 0.707\nsamples = 348\nvalue = [67, 281]"] ;
878 -> 879 ;
880 [label="X[0] <= 614.5\nentropy = 0.966\nsamples = 161\nvalue = [63, 98]"] ;
879 -> 880 ;
881 [label="X[0] <= 606.5\nentropy = 0.51\nsamples = 97\nvalue = [11, 86]"] ;
880 -> 881 ;
882 [label="entropy = 0.0\nsamples = 59\nvalue = [0, 59]"] ;
881 -> 882 ;
883 [label="X[1] <= 186.5\nentropy = 0.868\nsamples = 38\nvalue = [11, 27]"] ;
881 -> 883 ;
884 [label="X[1] <= 184.5\nentropy = 0.937\nsamples = 17\nvalue = [11, 6]"] ;
883 -> 884 ;
885 [label="entropy = 0.0\nsamples = 7\nvalue = [7, 0]"] ;
884 -> 885 ;
886 [label="X[0] <= 611.5\nentropy = 0.971\nsamples = 10\nvalue = [4, 6]"] ;
884 -> 886 ;
887 [label="entropy = 0.0\nsamples = 6\nvalue = [0, 6]"] ;
886 -> 887 ;
888 [label="entropy = 0.0\nsamples = 4\nvalue = [4, 0]"] ;
886 -> 888 ;
889 [label="entropy = 0.0\nsamples = 21\nvalue = [0, 21]"] ;
883 -> 889 ;
890 [label="X[1] <= 187.5\nentropy = 0.696\nsamples = 64\nvalue = [52, 12]"] ;
880 -> 890 ;
891 [label="entropy = 0.0\nsamples = 33\nvalue = [33, 0]"] ;
890 -> 891 ;
892 [label="X[0] <= 618.5\nentropy = 0.963\nsamples = 31\nvalue = [19, 12]"] ;
890 -> 892 ;
893 [label="entropy = 0.0\nsamples = 9\nvalue = [0, 9]"] ;
892 -> 893 ;
894 [label="X[0] <= 622.5\nentropy = 0.575\nsamples = 22\nvalue = [19, 3]"] ;
892 -> 894 ;
895 [label="X[1] <= 189.5\nentropy = 0.954\nsamples = 8\nvalue = [5, 3]"] ;
894 -> 895 ;
896 [label="entropy = 0.0\nsamples = 5\nvalue = [5, 0]"] ;
895 -> 896 ;
897 [label="entropy = 0.0\nsamples = 3\nvalue = [0, 3]"] ;
895 -> 897 ;
898 [label="entropy = 0.0\nsamples = 14\nvalue = [14, 0]"] ;
894 -> 898 ;
899 [label="X[0] <= 625.5\nentropy = 0.149\nsamples = 187\nvalue = [4, 183]"] ;
879 -> 899 ;
900 [label="entropy = 0.0\nsamples = 168\nvalue = [0, 168]"] ;
899 -> 900 ;
901 [label="X[1] <= 191.5\nentropy = 0.742\nsamples = 19\nvalue = [4, 15]"] ;
899 -> 901 ;
902 [label="entropy = 0.0\nsamples = 3\nvalue = [3, 0]"] ;
901 -> 902 ;
903 [label="X[1] <= 192.5\nentropy = 0.337\nsamples = 16\nvalue = [1, 15]"] ;
901 -> 903 ;
904 [label="X[0] <= 627.5\nentropy = 0.918\nsamples = 3\nvalue = [1, 2]"] ;
903 -> 904 ;
905 [label="entropy = 0.0\nsamples = 2\nvalue = [0, 2]"] ;
904 -> 905 ;
906 [label="entropy = 0.0\nsamples = 1\nvalue = [1, 0]"] ;
904 -> 906 ;
907 [label="entropy = 0.0\nsamples = 13\nvalue = [0, 13]"] ;
903 -> 907 ;
908 [label="X[1] <= 193.5\nentropy = 0.402\nsamples = 213\nvalue = [196, 17]"] ;
878 -> 908 ;
909 [label="X[0] <= 629.5\nentropy = 0.054\nsamples = 161\nvalue = [160, 1]"] ;
908 -> 909 ;
910 [label="X[1] <= 191.5\nentropy = 0.544\nsamples = 8\nvalue = [7, 1]"] ;
909 -> 910 ;
911 [label="entropy = 0.0\nsamples = 7\nvalue = [7, 0]"] ;
910 -> 911 ;
912 [label="entropy = 0.0\nsamples = 1\nvalue = [0, 1]"] ;
910 -> 912 ;
913 [label="entropy = 0.0\nsamples = 153\nvalue = [153, 0]"] ;
909 -> 913 ;
914 [label="X[0] <= 632.5\nentropy = 0.89\nsamples = 52\nvalue = [36, 16]"] ;
908 -> 914 ;
915 [label="entropy = 0.0\nsamples = 11\nvalue = [0, 11]"] ;
914 -> 915 ;
916 [label="X[0] <= 638.0\nentropy = 0.535\nsamples = 41\nvalue = [36, 5]"] ;
914 -> 916 ;
917 [label="X[1] <= 195.5\nentropy = 0.961\nsamples = 13\nvalue = [8, 5]"] ;
916 -> 917 ;
918 [label="entropy = 0.0\nsamples = 7\nvalue = [7, 0]"] ;
917 -> 918 ;
919 [label="X[0] <= 636.5\nentropy = 0.65\nsamples = 6\nvalue = [1, 5]"] ;
917 -> 919 ;
920 [label="entropy = 0.0\nsamples = 4\nvalue = [0, 4]"] ;
919 -> 920 ;
921 [label="X[1] <= 196.5\nentropy = 1.0\nsamples = 2\nvalue = [1, 1]"] ;
919 -> 921 ;
922 [label="entropy = 0.0\nsamples = 1\nvalue = [1, 0]"] ;
921 -> 922 ;
923 [label="entropy = 0.0\nsamples = 1\nvalue = [0, 1]"] ;
921 -> 923 ;
924 [label="entropy = 0.0\nsamples = 28\nvalue = [28, 0]"] ;
916 -> 924 ;
925 [label="X[0] <= 356.5\nentropy = 0.136\nsamples = 7375\nvalue = [141, 7234]"] ;
735 -> 925 ;
926 [label="X[1] <= 208.5\nentropy = 0.785\nsamples = 539\nvalue = [126, 413]"] ;
925 -> 926 ;
927 [label="X[0] <= 340.5\nentropy = 0.938\nsamples = 189\nvalue = [122, 67]"] ;
926 -> 927 ;
928 [label="entropy = 0.0\nsamples = 57\nvalue = [57, 0]"] ;
927 -> 928 ;
929 [label="X[1] <= 202.5\nentropy = 1.0\nsamples = 132\nvalue = [65, 67]"] ;
927 -> 929 ;
930 [label="X[0] <= 351.5\nentropy = 0.598\nsamples = 62\nvalue = [53, 9]"] ;
929 -> 930 ;
931 [label="entropy = 0.0\nsamples = 41\nvalue = [41, 0]"] ;
930 -> 931 ;
932 [label="X[1] <= 200.5\nentropy = 0.985\nsamples = 21\nvalue = [12, 9]"] ;
930 -> 932 ;
933 [label="X[1] <= 199.5\nentropy = 0.414\nsamples = 12\nvalue = [11, 1]"] ;
932 -> 933 ;
934 [label="entropy = 0.0\nsamples = 8\nvalue = [8, 0]"] ;
933 -> 934 ;
935 [label="X[0] <= 354.5\nentropy = 0.811\nsamples = 4\nvalue = [3, 1]"] ;
933 -> 935 ;
936 [label="entropy = 0.0\nsamples = 3\nvalue = [3, 0]"] ;
935 -> 936 ;
937 [label="entropy = 0.0\nsamples = 1\nvalue = [0, 1]"] ;
935 -> 937 ;
938 [label="X[0] <= 352.5\nentropy = 0.503\nsamples = 9\nvalue = [1, 8]"] ;
932 -> 938 ;
939 [label="X[1] <= 201.5\nentropy = 1.0\nsamples = 2\nvalue = [1, 1]"] ;
938 -> 939 ;
940 [label="entropy = 0.0\nsamples = 1\nvalue = [1, 0]"] ;
939 -> 940 ;
941 [label="entropy = 0.0\nsamples = 1\nvalue = [0, 1]"] ;
939 -> 941 ;
942 [label="entropy = 0.0\nsamples = 7\nvalue = [0, 7]"] ;
938 -> 942 ;
943 [label="X[0] <= 346.5\nentropy = 0.661\nsamples = 70\nvalue = [12, 58]"] ;
929 -> 943 ;
944 [label="X[1] <= 204.5\nentropy = 0.99\nsamples = 25\nvalue = [11, 14]"] ;
943 -> 944 ;
945 [label="entropy = 0.0\nsamples = 6\nvalue = [6, 0]"] ;
944 -> 945 ;
946 [label="X[0] <= 343.5\nentropy = 0.831\nsamples = 19\nvalue = [5, 14]"] ;
944 -> 946 ;
947 [label="X[1] <= 205.5\nentropy = 0.994\nsamples = 11\nvalue = [5, 6]"] ;
946 -> 947 ;
948 [label="entropy = 0.0\nsamples = 3\nvalue = [3, 0]"] ;
947 -> 948 ;
949 [label="X[1] <= 207.5\nentropy = 0.811\nsamples = 8\nvalue = [2, 6]"] ;
947 -> 949 ;
950 [label="X[0] <= 342.5\nentropy = 0.971\nsamples = 5\nvalue = [2, 3]"] ;
949 -> 950 ;
951 [label="X[1] <= 206.5\nentropy = 0.918\nsamples = 3\nvalue = [2, 1]"] ;
950 -> 951 ;
952 [label="entropy = 0.0\nsamples = 1\nvalue = [1, 0]"] ;
951 -> 952 ;
953 [label="X[0] <= 341.5\nentropy = 1.0\nsamples = 2\nvalue = [1, 1]"] ;
951 -> 953 ;
954 [label="entropy = 0.0\nsamples = 1\nvalue = [1, 0]"] ;
953 -> 954 ;
955 [label="entropy = 0.0\nsamples = 1\nvalue = [0, 1]"] ;
953 -> 955 ;
956 [label="entropy = 0.0\nsamples = 2\nvalue = [0, 2]"] ;
950 -> 956 ;
957 [label="entropy = 0.0\nsamples = 3\nvalue = [0, 3]"] ;
949 -> 957 ;
958 [label="entropy = 0.0\nsamples = 8\nvalue = [0, 8]"] ;
946 -> 958 ;
959 [label="X[1] <= 203.5\nentropy = 0.154\nsamples = 45\nvalue = [1, 44]"] ;
943 -> 959 ;
960 [label="X[0] <= 349.0\nentropy = 0.65\nsamples = 6\nvalue = [1, 5]"] ;
959 -> 960 ;
961 [label="entropy = 0.0\nsamples = 1\nvalue = [1, 0]"] ;
960 -> 961 ;
962 [label="entropy = 0.0\nsamples = 5\nvalue = [0, 5]"] ;
960 -> 962 ;
963 [label="entropy = 0.0\nsamples = 39\nvalue = [0, 39]"] ;
959 -> 963 ;
964 [label="X[1] <= 210.5\nentropy = 0.09\nsamples = 350\nvalue = [4, 346]"] ;
926 -> 964 ;
965 [label="X[0] <= 336.5\nentropy = 0.494\nsamples = 37\nvalue = [4, 33]"] ;
964 -> 965 ;
966 [label="X[0] <= 335.5\nentropy = 0.722\nsamples = 5\nvalue = [4, 1]"] ;
965 -> 966 ;
967 [label="entropy = 0.0\nsamples = 3\nvalue = [3, 0]"] ;
966 -> 967 ;
968 [label="X[1] <= 209.5\nentropy = 1.0\nsamples = 2\nvalue = [1, 1]"] ;
966 -> 968 ;
969 [label="entropy = 0.0\nsamples = 1\nvalue = [1, 0]"] ;
968 -> 969 ;
970 [label="entropy = 0.0\nsamples = 1\nvalue = [0, 1]"] ;
968 -> 970 ;
971 [label="entropy = 0.0\nsamples = 32\nvalue = [0, 32]"] ;
965 -> 971 ;
972 [label="entropy = 0.0\nsamples = 313\nvalue = [0, 313]"] ;
964 -> 972 ;
973 [label="X[0] <= 642.5\nentropy = 0.023\nsamples = 6836\nvalue = [15, 6821]"] ;
925 -> 973 ;
974 [label="X[0] <= 358.5\nentropy = 0.002\nsamples = 6682\nvalue = [1, 6681]"] ;
973 -> 974 ;
975 [label="X[1] <= 198.5\nentropy = 0.141\nsamples = 50\nvalue = [1, 49]"] ;
974 -> 975 ;
976 [label="entropy = 0.0\nsamples = 1\nvalue = [1, 0]"] ;
975 -> 976 ;
977 [label="entropy = 0.0\nsamples = 49\nvalue = [0, 49]"] ;
975 -> 977 ;
978 [label="entropy = 0.0\nsamples = 6632\nvalue = [0, 6632]"] ;
974 -> 978 ;
979 [label="X[1] <= 200.5\nentropy = 0.439\nsamples = 154\nvalue = [14, 140]"] ;
973 -> 979 ;
980 [label="X[0] <= 645.5\nentropy = 0.787\nsamples = 17\nvalue = [13, 4]"] ;
979 -> 980 ;
981 [label="X[1] <= 199.5\nentropy = 0.991\nsamples = 9\nvalue = [5, 4]"] ;
980 -> 981 ;
982 [label="X[0] <= 643.5\nentropy = 0.65\nsamples = 6\nvalue = [5, 1]"] ;
981 -> 982 ;
983 [label="X[1] <= 198.5\nentropy = 1.0\nsamples = 2\nvalue = [1, 1]"] ;
982 -> 983 ;
984 [label="entropy = 0.0\nsamples = 1\nvalue = [1, 0]"] ;
983 -> 984 ;
985 [label="entropy = 0.0\nsamples = 1\nvalue = [0, 1]"] ;
983 -> 985 ;
986 [label="entropy = 0.0\nsamples = 4\nvalue = [4, 0]"] ;
982 -> 986 ;
987 [label="entropy = 0.0\nsamples = 3\nvalue = [0, 3]"] ;
981 -> 987 ;
988 [label="entropy = 0.0\nsamples = 8\nvalue = [8, 0]"] ;
980 -> 988 ;
989 [label="X[1] <= 201.5\nentropy = 0.062\nsamples = 137\nvalue = [1, 136]"] ;
979 -> 989 ;
990 [label="X[0] <= 647.5\nentropy = 0.65\nsamples = 6\nvalue = [1, 5]"] ;
989 -> 990 ;
991 [label="entropy = 0.0\nsamples = 5\nvalue = [0, 5]"] ;
990 -> 991 ;
992 [label="entropy = 0.0\nsamples = 1\nvalue = [1, 0]"] ;
990 -> 992 ;
993 [label="entropy = 0.0\nsamples = 131\nvalue = [0, 131]"] ;
989 -> 993 ;
994 [label="X[1] <= 205.5\nentropy = 0.644\nsamples = 2977\nvalue = [2489, 488]"] ;
734 -> 994 ;
995 [label="X[1] <= 202.5\nentropy = 0.055\nsamples = 1745\nvalue = [1734, 11]"] ;
994 -> 995 ;
996 [label="entropy = 0.0\nsamples = 1583\nvalue = [1583, 0]"] ;
995 -> 996 ;
997 [label="X[0] <= 655.5\nentropy = 0.358\nsamples = 162\nvalue = [151, 11]"] ;
995 -> 997 ;
998 [label="X[0] <= 652.5\nentropy = 0.75\nsamples = 14\nvalue = [3, 11]"] ;
997 -> 998 ;
999 [label="entropy = 0.0\nsamples = 8\nvalue = [0, 8]"] ;
998 -> 999 ;
1000 [label="X[1] <= 203.5\nentropy = 1.0\nsamples = 6\nvalue = [3, 3]"] ;
998 -> 1000 ;
1001 [label="entropy = 0.0\nsamples = 2\nvalue = [2, 0]"] ;
1000 -> 1001 ;
1002 [label="X[0] <= 653.5\nentropy = 0.811\nsamples = 4\nvalue = [1, 3]"] ;
1000 -> 1002 ;
1003 [label="entropy = 0.0\nsamples = 2\nvalue = [0, 2]"] ;
1002 -> 1003 ;
1004 [label="X[0] <= 654.5\nentropy = 1.0\nsamples = 2\nvalue = [1, 1]"] ;
1002 -> 1004 ;
1005 [label="entropy = 0.0\nsamples = 1\nvalue = [1, 0]"] ;
1004 -> 1005 ;
1006 [label="entropy = 0.0\nsamples = 1\nvalue = [0, 1]"] ;
1004 -> 1006 ;
1007 [label="entropy = 0.0\nsamples = 148\nvalue = [148, 0]"] ;
997 -> 1007 ;
1008 [label="X[0] <= 680.5\nentropy = 0.963\nsamples = 1232\nvalue = [755, 477]"] ;
994 -> 1008 ;
1009 [label="X[1] <= 217.5\nentropy = 0.775\nsamples = 565\nvalue = [129, 436]"] ;
1008 -> 1009 ;
1010 [label="X[0] <= 662.5\nentropy = 0.992\nsamples = 280\nvalue = [125, 155]"] ;
1009 -> 1010 ;
1011 [label="X[1] <= 208.5\nentropy = 0.378\nsamples = 123\nvalue = [9, 114]"] ;
1010 -> 1011 ;
1012 [label="X[0] <= 657.5\nentropy = 0.857\nsamples = 32\nvalue = [9, 23]"] ;
1011 -> 1012 ;
1013 [label="entropy = 0.0\nsamples = 19\nvalue = [0, 19]"] ;
1012 -> 1013 ;
1014 [label="X[1] <= 207.5\nentropy = 0.89\nsamples = 13\nvalue = [9, 4]"] ;
1012 -> 1014 ;
1015 [label="X[0] <= 658.5\nentropy = 0.503\nsamples = 9\nvalue = [8, 1]"] ;
1014 -> 1015 ;
1016 [label="X[1] <= 206.5\nentropy = 1.0\nsamples = 2\nvalue = [1, 1]"] ;
1015 -> 1016 ;
1017 [label="entropy = 0.0\nsamples = 1\nvalue = [1, 0]"] ;
1016 -> 1017 ;
1018 [label="entropy = 0.0\nsamples = 1\nvalue = [0, 1]"] ;
1016 -> 1018 ;
1019 [label="entropy = 0.0\nsamples = 7\nvalue = [7, 0]"] ;
1015 -> 1019 ;
1020 [label="X[0] <= 661.0\nentropy = 0.811\nsamples = 4\nvalue = [1, 3]"] ;
1014 -> 1020 ;
1021 [label="entropy = 0.0\nsamples = 3\nvalue = [0, 3]"] ;
1020 -> 1021 ;
1022 [label="entropy = 0.0\nsamples = 1\nvalue = [1, 0]"] ;
1020 -> 1022 ;
1023 [label="entropy = 0.0\nsamples = 91\nvalue = [0, 91]"] ;
1011 -> 1023 ;
1024 [label="X[1] <= 210.5\nentropy = 0.828\nsamples = 157\nvalue = [116, 41]"] ;
1010 -> 1024 ;
1025 [label="X[0] <= 664.5\nentropy = 0.107\nsamples = 71\nvalue = [70, 1]"] ;
1024 -> 1025 ;
1026 [label="X[1] <= 209.5\nentropy = 0.544\nsamples = 8\nvalue = [7, 1]"] ;
1025 -> 1026 ;
1027 [label="entropy = 0.0\nsamples = 7\nvalue = [7, 0]"] ;
1026 -> 1027 ;
1028 [label="entropy = 0.0\nsamples = 1\nvalue = [0, 1]"] ;
1026 -> 1028 ;
1029 [label="entropy = 0.0\nsamples = 63\nvalue = [63, 0]"] ;
1025 -> 1029 ;
1030 [label="X[0] <= 670.5\nentropy = 0.996\nsamples = 86\nvalue = [46, 40]"] ;
1024 -> 1030 ;
1031 [label="X[1] <= 213.5\nentropy = 0.571\nsamples = 37\nvalue = [5, 32]"] ;
1030 -> 1031 ;
1032 [label="X[0] <= 666.5\nentropy = 0.896\nsamples = 16\nvalue = [5, 11]"] ;
1031 -> 1032 ;
1033 [label="entropy = 0.0\nsamples = 7\nvalue = [0, 7]"] ;
1032 -> 1033 ;
1034 [label="X[1] <= 212.5\nentropy = 0.991\nsamples = 9\nvalue = [5, 4]"] ;
1032 -> 1034 ;
1035 [label="X[0] <= 667.5\nentropy = 0.722\nsamples = 5\nvalue = [4, 1]"] ;
1034 -> 1035 ;
1036 [label="X[1] <= 211.5\nentropy = 1.0\nsamples = 2\nvalue = [1, 1]"] ;
1035 -> 1036 ;
1037 [label="entropy = 0.0\nsamples = 1\nvalue = [1, 0]"] ;
1036 -> 1037 ;
1038 [label="entropy = 0.0\nsamples = 1\nvalue = [0, 1]"] ;
1036 -> 1038 ;
1039 [label="entropy = 0.0\nsamples = 3\nvalue = [3, 0]"] ;
1035 -> 1039 ;
1040 [label="X[0] <= 669.5\nentropy = 0.811\nsamples = 4\nvalue = [1, 3]"] ;
1034 -> 1040 ;
1041 [label="entropy = 0.0\nsamples = 3\nvalue = [0, 3]"] ;
1040 -> 1041 ;
1042 [label="entropy = 0.0\nsamples = 1\nvalue = [1, 0]"] ;
1040 -> 1042 ;
1043 [label="entropy = 0.0\nsamples = 21\nvalue = [0, 21]"] ;
1031 -> 1043 ;
1044 [label="X[1] <= 214.5\nentropy = 0.642\nsamples = 49\nvalue = [41, 8]"] ;
1030 -> 1044 ;
1045 [label="entropy = 0.0\nsamples = 27\nvalue = [27, 0]"] ;
1044 -> 1045 ;
1046 [label="X[0] <= 674.5\nentropy = 0.946\nsamples = 22\nvalue = [14, 8]"] ;
1044 -> 1046 ;
1047 [label="X[1] <= 215.5\nentropy = 0.764\nsamples = 9\nvalue = [2, 7]"] ;
1046 -> 1047 ;
1048 [label="X[0] <= 672.5\nentropy = 0.918\nsamples = 3\nvalue = [2, 1]"] ;
1047 -> 1048 ;
1049 [label="entropy = 0.0\nsamples = 1\nvalue = [0, 1]"] ;
1048 -> 1049 ;
1050 [label="entropy = 0.0\nsamples = 2\nvalue = [2, 0]"] ;
1048 -> 1050 ;
1051 [label="entropy = 0.0\nsamples = 6\nvalue = [0, 6]"] ;
1047 -> 1051 ;
1052 [label="X[1] <= 216.5\nentropy = 0.391\nsamples = 13\nvalue = [12, 1]"] ;
1046 -> 1052 ;
1053 [label="entropy = 0.0\nsamples = 8\nvalue = [8, 0]"] ;
1052 -> 1053 ;
1054 [label="X[0] <= 676.5\nentropy = 0.722\nsamples = 5\nvalue = [4, 1]"] ;
1052 -> 1054 ;
1055 [label="entropy = 0.0\nsamples = 1\nvalue = [0, 1]"] ;
1054 -> 1055 ;
1056 [label="entropy = 0.0\nsamples = 4\nvalue = [4, 0]"] ;
1054 -> 1056 ;
1057 [label="X[0] <= 677.5\nentropy = 0.106\nsamples = 285\nvalue = [4, 281]"] ;
1009 -> 1057 ;
1058 [label="entropy = 0.0\nsamples = 257\nvalue = [0, 257]"] ;
1057 -> 1058 ;
1059 [label="X[1] <= 219.5\nentropy = 0.592\nsamples = 28\nvalue = [4, 24]"] ;
1057 -> 1059 ;
1060 [label="entropy = 0.0\nsamples = 4\nvalue = [4, 0]"] ;
1059 -> 1060 ;
1061 [label="entropy = 0.0\nsamples = 24\nvalue = [0, 24]"] ;
1059 -> 1061 ;
1062 [label="X[0] <= 691.5\nentropy = 0.333\nsamples = 667\nvalue = [626, 41]"] ;
1008 -> 1062 ;
1063 [label="X[1] <= 221.5\nentropy = 0.746\nsamples = 193\nvalue = [152, 41]"] ;
1062 -> 1063 ;
1064 [label="X[1] <= 220.5\nentropy = 0.063\nsamples = 136\nvalue = [135, 1]"] ;
1063 -> 1064 ;
1065 [label="entropy = 0.0\nsamples = 130\nvalue = [130, 0]"] ;
1064 -> 1065 ;
1066 [label="X[0] <= 682.5\nentropy = 0.65\nsamples = 6\nvalue = [5, 1]"] ;
1064 -> 1066 ;
1067 [label="entropy = 0.0\nsamples = 1\nvalue = [0, 1]"] ;
1066 -> 1067 ;
1068 [label="entropy = 0.0\nsamples = 5\nvalue = [5, 0]"] ;
1066 -> 1068 ;
1069 [label="X[0] <= 686.5\nentropy = 0.879\nsamples = 57\nvalue = [17, 40]"] ;
1063 -> 1069 ;
1070 [label="X[1] <= 223.5\nentropy = 0.337\nsamples = 32\nvalue = [2, 30]"] ;
1069 -> 1070 ;
1071 [label="X[0] <= 683.5\nentropy = 0.811\nsamples = 8\nvalue = [2, 6]"] ;
1070 -> 1071 ;
1072 [label="entropy = 0.0\nsamples = 4\nvalue = [0, 4]"] ;
1071 -> 1072 ;
1073 [label="X[1] <= 222.5\nentropy = 1.0\nsamples = 4\nvalue = [2, 2]"] ;
1071 -> 1073 ;
1074 [label="entropy = 0.0\nsamples = 1\nvalue = [1, 0]"] ;
1073 -> 1074 ;
1075 [label="X[0] <= 685.5\nentropy = 0.918\nsamples = 3\nvalue = [1, 2]"] ;
1073 -> 1075 ;
1076 [label="entropy = 0.0\nsamples = 2\nvalue = [0, 2]"] ;
1075 -> 1076 ;
1077 [label="entropy = 0.0\nsamples = 1\nvalue = [1, 0]"] ;
1075 -> 1077 ;
1078 [label="entropy = 0.0\nsamples = 24\nvalue = [0, 24]"] ;
1070 -> 1078 ;
1079 [label="X[1] <= 224.5\nentropy = 0.971\nsamples = 25\nvalue = [15, 10]"] ;
1069 -> 1079 ;
1080 [label="entropy = 0.0\nsamples = 11\nvalue = [11, 0]"] ;
1079 -> 1080 ;
1081 [label="X[0] <= 688.5\nentropy = 0.863\nsamples = 14\nvalue = [4, 10]"] ;
1079 -> 1081 ;
1082 [label="entropy = 0.0\nsamples = 5\nvalue = [0, 5]"] ;
1081 -> 1082 ;
1083 [label="X[1] <= 226.5\nentropy = 0.991\nsamples = 9\nvalue = [4, 5]"] ;
1081 -> 1083 ;
1084 [label="X[1] <= 225.5\nentropy = 0.722\nsamples = 5\nvalue = [4, 1]"] ;
1083 -> 1084 ;
1085 [label="entropy = 0.0\nsamples = 3\nvalue = [3, 0]"] ;
1084 -> 1085 ;
1086 [label="X[0] <= 689.5\nentropy = 1.0\nsamples = 2\nvalue = [1, 1]"] ;
1084 -> 1086 ;
1087 [label="entropy = 0.0\nsamples = 1\nvalue = [0, 1]"] ;
1086 -> 1087 ;
1088 [label="entropy = 0.0\nsamples = 1\nvalue = [1, 0]"] ;
1086 -> 1088 ;
1089 [label="entropy = 0.0\nsamples = 4\nvalue = [0, 4]"] ;
1083 -> 1089 ;
1090 [label="entropy = 0.0\nsamples = 474\nvalue = [474, 0]"] ;
1062 -> 1090 ;
1091 [label="X[1] <= 758.5\nentropy = 0.234\nsamples = 205814\nvalue = [7883, 197931]"] ;
671 -> 1091 ;
1092 [label="X[0] <= 290.5\nentropy = 0.062\nsamples = 184325\nvalue = [1342, 182983]"] ;
1091 -> 1092 ;
1093 [label="X[1] <= 261.5\nentropy = 0.396\nsamples = 13939\nvalue = [1092, 12847]"] ;
1092 -> 1093 ;
1094 [label="X[1] <= 245.5\nentropy = 0.771\nsamples = 881\nvalue = [682, 199]"] ;
1093 -> 1094 ;
1095 [label="X[0] <= 286.5\nentropy = 0.129\nsamples = 451\nvalue = [443, 8]"] ;
1094 -> 1095 ;
1096 [label="entropy = 0.0\nsamples = 403\nvalue = [403, 0]"] ;
1095 -> 1096 ;
1097 [label="X[1] <= 241.5\nentropy = 0.65\nsamples = 48\nvalue = [40, 8]"] ;
1095 -> 1097 ;
1098 [label="entropy = 0.0\nsamples = 39\nvalue = [39, 0]"] ;
1097 -> 1098 ;
1099 [label="X[1] <= 242.5\nentropy = 0.503\nsamples = 9\nvalue = [1, 8]"] ;
1097 -> 1099 ;
1100 [label="X[0] <= 288.5\nentropy = 0.918\nsamples = 3\nvalue = [1, 2]"] ;
1099 -> 1100 ;
1101 [label="entropy = 0.0\nsamples = 1\nvalue = [1, 0]"] ;
1100 -> 1101 ;
1102 [label="entropy = 0.0\nsamples = 2\nvalue = [0, 2]"] ;
1100 -> 1102 ;
1103 [label="entropy = 0.0\nsamples = 6\nvalue = [0, 6]"] ;
1099 -> 1103 ;
1104 [label="X[0] <= 272.5\nentropy = 0.991\nsamples = 430\nvalue = [239, 191]"] ;
1094 -> 1104 ;
1105 [label="X[1] <= 257.5\nentropy = 0.307\nsamples = 200\nvalue = [189, 11]"] ;
1104 -> 1105 ;
1106 [label="entropy = 0.0\nsamples = 153\nvalue = [153, 0]"] ;
1105 -> 1106 ;
1107 [label="X[0] <= 268.5\nentropy = 0.785\nsamples = 47\nvalue = [36, 11]"] ;
1105 -> 1107 ;
1108 [label="entropy = 0.0\nsamples = 33\nvalue = [33, 0]"] ;
1107 -> 1108 ;
1109 [label="X[0] <= 270.5\nentropy = 0.75\nsamples = 14\nvalue = [3, 11]"] ;
1107 -> 1109 ;
1110 [label="X[1] <= 259.5\nentropy = 0.985\nsamples = 7\nvalue = [3, 4]"] ;
1109 -> 1110 ;
1111 [label="X[1] <= 258.5\nentropy = 0.811\nsamples = 4\nvalue = [3, 1]"] ;
1110 -> 1111 ;
1112 [label="entropy = 0.0\nsamples = 2\nvalue = [2, 0]"] ;
1111 -> 1112 ;
1113 [label="X[0] <= 269.5\nentropy = 1.0\nsamples = 2\nvalue = [1, 1]"] ;
1111 -> 1113 ;
1114 [label="entropy = 0.0\nsamples = 1\nvalue = [1, 0]"] ;
1113 -> 1114 ;
1115 [label="entropy = 0.0\nsamples = 1\nvalue = [0, 1]"] ;
1113 -> 1115 ;
1116 [label="entropy = 0.0\nsamples = 3\nvalue = [0, 3]"] ;
1110 -> 1116 ;
1117 [label="entropy = 0.0\nsamples = 7\nvalue = [0, 7]"] ;
1109 -> 1117 ;
1118 [label="X[1] <= 254.5\nentropy = 0.755\nsamples = 230\nvalue = [50, 180]"] ;
1104 -> 1118 ;
1119 [label="X[0] <= 281.5\nentropy = 0.954\nsamples = 131\nvalue = [49, 82]"] ;
1118 -> 1119 ;
1120 [label="X[1] <= 249.5\nentropy = 0.83\nsamples = 61\nvalue = [45, 16]"] ;
1119 -> 1120 ;
1121 [label="entropy = 0.0\nsamples = 28\nvalue = [28, 0]"] ;
1120 -> 1121 ;
1122 [label="X[0] <= 277.5\nentropy = 0.999\nsamples = 33\nvalue = [17, 16]"] ;
1120 -> 1122 ;
1123 [label="X[1] <= 253.5\nentropy = 0.523\nsamples = 17\nvalue = [15, 2]"] ;
1122 -> 1123 ;
1124 [label="entropy = 0.0\nsamples = 12\nvalue = [12, 0]"] ;
1123 -> 1124 ;
1125 [label="X[0] <= 275.5\nentropy = 0.971\nsamples = 5\nvalue = [3, 2]"] ;
1123 -> 1125 ;
1126 [label="entropy = 0.0\nsamples = 3\nvalue = [3, 0]"] ;
1125 -> 1126 ;
1127 [label="entropy = 0.0\nsamples = 2\nvalue = [0, 2]"] ;
1125 -> 1127 ;
1128 [label="X[1] <= 250.5\nentropy = 0.544\nsamples = 16\nvalue = [2, 14]"] ;
1122 -> 1128 ;
1129 [label="X[0] <= 279.5\nentropy = 1.0\nsamples = 4\nvalue = [2, 2]"] ;
1128 -> 1129 ;
1130 [label="entropy = 0.0\nsamples = 2\nvalue = [2, 0]"] ;
1129 -> 1130 ;
1131 [label="entropy = 0.0\nsamples = 2\nvalue = [0, 2]"] ;
1129 -> 1131 ;
1132 [label="entropy = 0.0\nsamples = 12\nvalue = [0, 12]"] ;
1128 -> 1132 ;
1133 [label="X[1] <= 247.5\nentropy = 0.316\nsamples = 70\nvalue = [4, 66]"] ;
1119 -> 1133 ;
1134 [label="X[0] <= 284.5\nentropy = 0.787\nsamples = 17\nvalue = [4, 13]"] ;
1133 -> 1134 ;
1135 [label="X[1] <= 246.5\nentropy = 0.918\nsamples = 6\nvalue = [4, 2]"] ;
1134 -> 1135 ;
1136 [label="entropy = 0.0\nsamples = 3\nvalue = [3, 0]"] ;
1135 -> 1136 ;
1137 [label="X[0] <= 282.5\nentropy = 0.918\nsamples = 3\nvalue = [1, 2]"] ;
1135 -> 1137 ;
1138 [label="entropy = 0.0\nsamples = 1\nvalue = [1, 0]"] ;
1137 -> 1138 ;
1139 [label="entropy = 0.0\nsamples = 2\nvalue = [0, 2]"] ;
1137 -> 1139 ;
1140 [label="entropy = 0.0\nsamples = 11\nvalue = [0, 11]"] ;
1134 -> 1140 ;
1141 [label="entropy = 0.0\nsamples = 53\nvalue = [0, 53]"] ;
1133 -> 1141 ;
1142 [label="X[0] <= 273.5\nentropy = 0.081\nsamples = 99\nvalue = [1, 98]"] ;
1118 -> 1142 ;
1143 [label="X[1] <= 255.5\nentropy = 0.592\nsamples = 7\nvalue = [1, 6]"] ;
1142 -> 1143 ;
1144 [label="entropy = 0.0\nsamples = 1\nvalue = [1, 0]"] ;
1143 -> 1144 ;
1145 [label="entropy = 0.0\nsamples = 6\nvalue = [0, 6]"] ;
1143 -> 1145 ;
1146 [label="entropy = 0.0\nsamples = 92\nvalue = [0, 92]"] ;
1142 -> 1146 ;
1147 [label="X[1] <= 732.5\nentropy = 0.201\nsamples = 13058\nvalue = [410, 12648]"] ;
1093 -> 1147 ;
1148 [label="X[1] <= 271.5\nentropy = 0.042\nsamples = 12405\nvalue = [57, 12348]"] ;
1147 -> 1148 ;
1149 [label="X[0] <= 265.5\nentropy = 0.692\nsamples = 264\nvalue = [49, 215]"] ;
1148 -> 1149 ;
1150 [label="X[0] <= 260.5\nentropy = 0.927\nsamples = 73\nvalue = [48, 25]"] ;
1149 -> 1150 ;
1151 [label="X[1] <= 269.5\nentropy = 0.431\nsamples = 34\nvalue = [31, 3]"] ;
1150 -> 1151 ;
1152 [label="entropy = 0.0\nsamples = 27\nvalue = [27, 0]"] ;
1151 -> 1152 ;
1153 [label="X[0] <= 258.5\nentropy = 0.985\nsamples = 7\nvalue = [4, 3]"] ;
1151 -> 1153 ;
1154 [label="entropy = 0.0\nsamples = 4\nvalue = [4, 0]"] ;
1153 -> 1154 ;
1155 [label="entropy = 0.0\nsamples = 3\nvalue = [0, 3]"] ;
1153 -> 1155 ;
1156 [label="X[1] <= 267.5\nentropy = 0.988\nsamples = 39\nvalue = [17, 22]"] ;
1150 -> 1156 ;
1157 [label="X[0] <= 262.5\nentropy = 0.828\nsamples = 23\nvalue = [17, 6]"] ;
1156 -> 1157 ;
1158 [label="entropy = 0.0\nsamples = 10\nvalue = [10, 0]"] ;
1157 -> 1158 ;
1159 [label="X[1] <= 264.5\nentropy = 0.996\nsamples = 13\nvalue = [7, 6]"] ;
1157 -> 1159 ;
1160 [label="X[1] <= 263.5\nentropy = 0.544\nsamples = 8\nvalue = [7, 1]"] ;
1159 -> 1160 ;
1161 [label="entropy = 0.0\nsamples = 5\nvalue = [5, 0]"] ;
1160 -> 1161 ;
1162 [label="X[0] <= 264.5\nentropy = 0.918\nsamples = 3\nvalue = [2, 1]"] ;
1160 -> 1162 ;
1163 [label="entropy = 0.0\nsamples = 2\nvalue = [2, 0]"] ;
1162 -> 1163 ;
1164 [label="entropy = 0.0\nsamples = 1\nvalue = [0, 1]"] ;
1162 -> 1164 ;
1165 [label="entropy = 0.0\nsamples = 5\nvalue = [0, 5]"] ;
1159 -> 1165 ;
1166 [label="entropy = 0.0\nsamples = 16\nvalue = [0, 16]"] ;
1156 -> 1166 ;
1167 [label="X[0] <= 266.5\nentropy = 0.047\nsamples = 191\nvalue = [1, 190]"] ;
1149 -> 1167 ;
1168 [label="X[1] <= 262.5\nentropy = 0.503\nsamples = 9\nvalue = [1, 8]"] ;
1167 -> 1168 ;
1169 [label="entropy = 0.0\nsamples = 1\nvalue = [1, 0]"] ;
1168 -> 1169 ;
1170 [label="entropy = 0.0\nsamples = 8\nvalue = [0, 8]"] ;
1168 -> 1170 ;
1171 [label="entropy = 0.0\nsamples = 182\nvalue = [0, 182]"] ;
1167 -> 1171 ;
1172 [label="X[1] <= 729.5\nentropy = 0.008\nsamples = 12141\nvalue = [8, 12133]"] ;
1148 -> 1172 ;
1173 [label="entropy = 0.0\nsamples = 12065\nvalue = [0, 12065]"] ;
1172 -> 1173 ;
1174 [label="X[0] <= 260.5\nentropy = 0.485\nsamples = 76\nvalue = [8, 68]"] ;
1172 -> 1174 ;
1175 [label="X[0] <= 258.5\nentropy = 0.845\nsamples = 11\nvalue = [8, 3]"] ;
1174 -> 1175 ;
1176 [label="entropy = 0.0\nsamples = 6\nvalue = [6, 0]"] ;
1175 -> 1176 ;
1177 [label="X[1] <= 730.5\nentropy = 0.971\nsamples = 5\nvalue = [2, 3]"] ;
1175 -> 1177 ;
1178 [label="entropy = 0.0\nsamples = 2\nvalue = [0, 2]"] ;
1177 -> 1178 ;
1179 [label="X[0] <= 259.5\nentropy = 0.918\nsamples = 3\nvalue = [2, 1]"] ;
1177 -> 1179 ;
1180 [label="entropy = 0.0\nsamples = 1\nvalue = [1, 0]"] ;
1179 -> 1180 ;
1181 [label="X[1] <= 731.5\nentropy = 1.0\nsamples = 2\nvalue = [1, 1]"] ;
1179 -> 1181 ;
1182 [label="entropy = 0.0\nsamples = 1\nvalue = [0, 1]"] ;
1181 -> 1182 ;
1183 [label="entropy = 0.0\nsamples = 1\nvalue = [1, 0]"] ;
1181 -> 1183 ;
1184 [label="entropy = 0.0\nsamples = 65\nvalue = [0, 65]"] ;
1174 -> 1184 ;
1185 [label="X[0] <= 275.5\nentropy = 0.995\nsamples = 653\nvalue = [353, 300]"] ;
1147 -> 1185 ;
1186 [label="X[1] <= 741.5\nentropy = 0.73\nsamples = 377\nvalue = [300, 77]"] ;
1185 -> 1186 ;
1187 [label="X[0] <= 266.5\nentropy = 0.995\nsamples = 129\nvalue = [59, 70]"] ;
1186 -> 1187 ;
1188 [label="X[0] <= 261.5\nentropy = 0.661\nsamples = 70\nvalue = [58, 12]"] ;
1187 -> 1188 ;
1189 [label="entropy = 0.0\nsamples = 39\nvalue = [39, 0]"] ;
1188 -> 1189 ;
1190 [label="X[1] <= 736.5\nentropy = 0.963\nsamples = 31\nvalue = [19, 12]"] ;
1188 -> 1190 ;
1191 [label="X[0] <= 264.5\nentropy = 0.837\nsamples = 15\nvalue = [4, 11]"] ;
1190 -> 1191 ;
1192 [label="X[1] <= 734.5\nentropy = 0.991\nsamples = 9\nvalue = [4, 5]"] ;
1191 -> 1192 ;
1193 [label="X[0] <= 262.5\nentropy = 0.65\nsamples = 6\nvalue = [1, 5]"] ;
1192 -> 1193 ;
1194 [label="X[1] <= 733.5\nentropy = 1.0\nsamples = 2\nvalue = [1, 1]"] ;
1193 -> 1194 ;
1195 [label="entropy = 0.0\nsamples = 1\nvalue = [0, 1]"] ;
1194 -> 1195 ;
1196 [label="entropy = 0.0\nsamples = 1\nvalue = [1, 0]"] ;
1194 -> 1196 ;
1197 [label="entropy = 0.0\nsamples = 4\nvalue = [0, 4]"] ;
1193 -> 1197 ;
1198 [label="entropy = 0.0\nsamples = 3\nvalue = [3, 0]"] ;
1192 -> 1198 ;
1199 [label="entropy = 0.0\nsamples = 6\nvalue = [0, 6]"] ;
1191 -> 1199 ;
1200 [label="X[1] <= 737.5\nentropy = 0.337\nsamples = 16\nvalue = [15, 1]"] ;
1190 -> 1200 ;
1201 [label="X[0] <= 265.5\nentropy = 0.811\nsamples = 4\nvalue = [3, 1]"] ;
1200 -> 1201 ;
1202 [label="entropy = 0.0\nsamples = 3\nvalue = [3, 0]"] ;
1201 -> 1202 ;
1203 [label="entropy = 0.0\nsamples = 1\nvalue = [0, 1]"] ;
1201 -> 1203 ;
1204 [label="entropy = 0.0\nsamples = 12\nvalue = [12, 0]"] ;
1200 -> 1204 ;
1205 [label="X[1] <= 740.5\nentropy = 0.124\nsamples = 59\nvalue = [1, 58]"] ;
1187 -> 1205 ;
1206 [label="entropy = 0.0\nsamples = 55\nvalue = [0, 55]"] ;
1205 -> 1206 ;
1207 [label="X[0] <= 268.5\nentropy = 0.811\nsamples = 4\nvalue = [1, 3]"] ;
1205 -> 1207 ;
1208 [label="entropy = 0.0\nsamples = 1\nvalue = [1, 0]"] ;
1207 -> 1208 ;
1209 [label="entropy = 0.0\nsamples = 3\nvalue = [0, 3]"] ;
1207 -> 1209 ;
